{"learner":{"attributes":{"scikit_learn":"{\"_estimator_type\": \"classifier\"}"},"feature_names":["Age","Gender","Family_Income","Internet_Access","Study_Hours_per_Day","Attendance_Rate","Assignment_Delay_Days","Travel_Time_Minutes","Part_Time_Job","Scholarship","Stress_Index","GPA","Semester_GPA","CGPA","Semester","Department","Parental_Education"],"feature_types":["float","int","float","int","float","float","int","float","int","int","float","float","float","float","int","int","int"],"gradient_booster":{"model":{"cats":{"enc":[],"feature_segments":[],"sorted_idx":[]},"gbtree_model_param":{"num_parallel_tree":"1","num_trees":"200"},"iteration_indptr":[0,1,2,3,4,5,6,7,8,9,10,11,12,13,14,15,16,17,18,19,20,21,22,23,24,25,26,27,28,29,30,31,32,33,34,35,36,37,38,39,40,41,42,43,44,45,46,47,48,49,50,51,52,53,54,55,56,57,58,59,60,61,62,63,64,65,66,67,68,69,70,71,72,73,74,75,76,77,78,79,80,81,82,83,84,85,86,87,88,89,90,91,92,93,94,95,96,97,98,99,100,101,102,103,104,105,106,107,108,109,110,111,112,113,114,115,116,117,118,119,120,121,122,123,124,125,126,127,128,129,130,131,132,133,134,135,136,137,138,139,140,141,142,143,144,145,146,147,148,149,150,151,152,153,154,155,156,157,158,159,160,161,162,163,164,165,166,167,168,169,170,171,172,173,174,175,176,177,178,179,180,181,182,183,184,185,186,187,188,189,190,191,192,193,194,195,196,197,198,199,200],"tree_info":[0,0,0,0,0,0,0,0,0,0,0,0,0,0,0,0,0,0,0,0,0,0,0,0,0,0,0,0,0,0,0,0,0,0,0,0,0,0,0,0,0,0,0,0,0,0,0,0,0,0,0,0,0,0,0,0,0,0,0,0,0,0,0,0,0,0,0,0,0,0,0,0,0,0,0,0,0,0,0,0,0,0,0,0,0,0,0,0,0,0,0,0,0,0,0,0,0,0,0,0,0,0,0,0,0,0,0,0,0,0,0,0,0,0,0,0,0,0,0,0,0,0,0,0,0,0,0,0,0,0,0,0,0,0,0,0,0,0,0,0,0,0,0,0,0,0,0,0,0,0,0,0,0,0,0,0,0,0,0,0,0,0,0,0,0,0,0,0,0,0,0,0,0,0,0,0,0,0,0,0,0,0,0,0,0,0,0,0,0,0,0,0,0,0,0,0,0,0,0,0],"trees":[{"base_weights":[8.222178E-9,1.6924127E0,-5.829889E-1,2.6012292E0,1.2316312E0,-2.5148142E-2,-9.199484E-1,3.021209E0,2.1944513E0,8.810256E-1,1.6328617E0,1.936502E-1,-3.5470366E-1,-7.2497976E-1,-1.0936376E0,3.0783155E0,4.578265E-3,3.0285332E-2,1.9315044E0,1.1773475E0,4.087289E-1,1.9495503E0,8.159923E-1,5.331075E-1,-7.6611124E-2,-1.5736128E-1,-6.791244E-1,-7.9743356E-1,-2.79252E-1,-1.1150744E0,-4.8712173E-1,3.1095829E-2,7.633995E-3,5.554354E-4,2.0098059E-2,1.6296513E-2,9.579309E-3,1.47422515E-2,2.2457293E-3,1.5802598E-2,2.4670625E-2,1.0324929E-2,4.1726753E-4,-8.858594E-3,6.375211E-3,-1.216539E-3,1.3594093E-2,-5.92205E-3,1.3236149E-3,-7.2408146E-3,3.7203094E-3,-9.076682E-3,-5.353451E-3,7.742103E-4,-5.605182E-3,-1.1788771E-2,-1.0110135E-2,-1.0846241E-2,-3.9971562E-4],"categories":[],"categories_nodes":[],"categories_segments":[],"categories_sizes":[],"default_left":[0,0,0,0,0,0,0,0,0,0,0,0,0,0,0,0,0,0,0,0,0,0,0,0,0,0,0,0,0,0,0,0,0,0,0,0,0,0,0,0,0,0,0,0,0,0,0,0,0,0,0,0,0,0,0,0,0,0,0],"id":0,"left_children":[1,3,5,7,9,11,13,15,17,19,21,23,25,27,29,31,-1,-1,33,35,37,39,41,43,45,47,49,51,53,55,57,-1,-1,-1,-1,-1,-1,-1,-1,-1,-1,-1,-1,-1,-1,-1,-1,-1,-1,-1,-1,-1,-1,-1,-1,-1,-1,-1,-1],"loss_changes":[1.4225524E3,1.5149084E2,2.0155234E2,1.4448547E1,3.3311157E1,2.9261662E1,2.1846008E1,7.088623E0,8.6979065E0,1.8272408E1,2.790628E1,2.2422668E1,1.0258059E1,1.0044876E1,4.0280457E0,1.7237549E0,0E0,0E0,7.701828E0,6.5577927E0,1.0106198E1,1.1667114E1,5.5850983E0,1.660512E1,9.00746E0,1.2924383E1,3.148798E0,7.399658E0,4.657458E0,1.0576782E0,3.6377938E0,0E0,0E0,0E0,0E0,0E0,0E0,0E0,0E0,0E0,0E0,0E0,0E0,0E0,0E0,0E0,0E0,0E0,0E0,0E0,0E0,0E0,0E0,0E0,0E0,0E0,0E0,0E0,0E0],"parents":[2147483647,0,0,1,1,2,2,3,3,4,4,5,5,6,6,7,7,8,8,9,9,10,10,11,11,12,12,13,13,14,14,15,15,18,18,19,19,20,20,21,21,22,22,23,23,24,24,25,25,26,26,27,27,28,28,29,29,30,30],"right_children":[2,4,6,8,10,12,14,16,18,20,22,24,26,28,30,32,-1,-1,34,36,38,40,42,44,46,48,50,52,54,56,58,-1,-1,-1,-1,-1,-1,-1,-1,-1,-1,-1,-1,-1,-1,-1,-1,-1,-1,-1,-1,-1,-1,-1,-1,-1,-1,-1,-1],"split_conditions":[1.58E0,7.5E-1,2.46E0,7.84E1,6.4E0,2.12E0,3.16E0,1.12E0,3E-2,1.33E0,8.55E1,7.99E1,8.44E1,7.1E0,5E0,6.22E0,4.578265E-3,3.0285332E-2,3.9E0,8.7E-1,1E0,2.16E1,1.43E0,3.3E0,9.3E0,5.3E0,8.7E0,3.62E1,2.5685E4,5.2E0,3.8E0,3.1095829E-2,7.633995E-3,5.554354E-4,2.0098059E-2,1.6296513E-2,9.579309E-3,1.47422515E-2,2.2457293E-3,1.5802598E-2,2.4670625E-2,1.0324929E-2,4.1726753E-4,-8.858594E-3,6.375211E-3,-1.216539E-3,1.3594093E-2,-5.92205E-3,1.3236149E-3,-7.2408146E-3,3.7203094E-3,-9.076682E-3,-5.353451E-3,7.742103E-4,-5.605182E-3,-1.1788771E-2,-1.0110135E-2,-1.0846241E-2,-3.9971562E-4],"split_indices":[11,11,11,5,10,11,11,12,12,11,5,5,5,10,6,4,0,0,10,12,3,0,11,10,10,10,10,7,2,10,10,0,0,0,0,0,0,0,0,0,0,0,0,0,0,0,0,0,0,0,0,0,0,0,0,0,0,0,0],"split_type":[0,0,0,0,0,0,0,0,0,0,0,0,0,0,0,0,0,0,0,0,0,0,0,0,0,0,0,0,0,0,0,0,0,0,0,0,0,0,0,0,0,0,0,0,0,0,0,0,0,0,0,0,0,0,0,0,0,0,0],"sum_hessian":[1.439789E3,3.68406E2,1.0713829E3,1.2238206E2,2.4602394E2,4.038608E2,6.6752216E2,5.7051636E1,6.533042E1,1.330005E2,1.1302343E2,2.4296439E2,1.6089641E2,3.1693353E2,3.505886E2,5.5611847E1,1.4397889E0,1.3138074E1,5.219235E1,8.080815E1,5.219235E1,8.0448204E1,3.2575226E1,1.07264275E2,1.357001E2,1.009652E2,5.9931213E1,2.7194012E2,4.4993404E1,3.378105E2,1.2778127E1,5.4532005E1,1.0798417E0,2.1596835E0,5.0032665E1,2.4296438E1,5.6511715E1,6.659024E0,4.5533325E1,4.931277E1,3.1135435E1,2.5196306E1,7.378918E0,6.8389974E0,1.0042528E2,1.3246059E2,3.239525E0,3.9954144E1,6.1011055E1,5.777153E1,2.1596835E0,1.896922E2,8.224794E1,2.0157045E1,2.4836359E1,2.0301024E2,1.3480023E2,4.8592877E0,7.918839E0],"tree_param":{"num_deleted":"0","num_feature":"17","num_nodes":"59","size_leaf_vector":"1"}},{"base_weights":[5.8136688E-5,1.661495E0,-5.7899743E-1,2.5419066E0,1.2119988E0,-2.4902245E-2,-9.1527325E-1,2.9456801E0,2.1491039E0,8.6860937E-1,1.6034479E0,1.9155627E-1,-3.5186586E-1,-7.2054946E-1,-1.089082E0,3.0002959E0,4.5447177E-3,2.9562406E-2,1.8935397E0,1.1588327E0,4.0414715E-1,1.9112633E0,8.0479443E-1,5.2625185E-1,-7.579042E-2,-1.5596293E-1,-6.7481047E-1,-7.928556E-1,-2.7696326E-1,-1.1105424E0,-4.841176E-1,3.0299524E-2,7.57839E-3,5.51527E-4,1.9694908E-2,1.6006887E-2,9.437961E-3,1.4515226E-2,2.2211578E-3,2.0657668E-2,8.79319E-3,1.0171929E-2,4.135122E-4,-8.817581E-3,6.2909727E-3,-1.2052391E-3,1.3416165E-2,-5.8823614E-3,1.309685E-3,-7.196901E-3,3.689891E-3,-9.029788E-3,-5.31552E-3,7.6653186E-4,-5.5672633E-3,-1.174481E-2,-1.0063538E-2,-1.0808044E-2,-3.9624266E-4],"categories":[],"categories_nodes":[],"categories_segments":[],"categories_sizes":[],"default_left":[0,0,0,0,0,0,0,0,0,0,0,0,0,0,0,0,0,0,0,0,0,0,0,0,0,0,0,0,0,0,0,0,0,0,0,0,0,0,0,0,0,0,0,0,0,0,0,0,0,0,0,0,0,0,0,0,0,0,0],"id":1,"left_children":[1,3,5,7,9,11,13,15,17,19,21,23,25,27,29,31,-1,-1,33,35,37,39,41,43,45,47,49,51,53,55,57,-1,-1,-1,-1,-1,-1,-1,-1,-1,-1,-1,-1,-1,-1,-1,-1,-1,-1,-1,-1,-1,-1,-1,-1,-1,-1,-1,-1],"loss_changes":[1.3870154E3,1.4437622E2,1.9918103E2,1.3499207E1,3.2021545E1,2.8717138E1,2.1731873E1,6.6577454E0,8.23761E0,1.7675713E1,2.6728302E1,2.1891644E1,1.0118292E1,9.93898E0,4.0007324E0,1.5285034E0,0E0,0E0,7.3927765E0,6.309387E0,9.839201E0,1.1299927E1,5.4248714E0,1.6276573E1,8.825313E0,1.2713827E1,3.1097202E0,7.3410645E0,4.586273E0,1.0618286E0,3.6036065E0,0E0,0E0,0E0,0E0,0E0,0E0,0E0,0E0,0E0,0E0,0E0,0E0,0E0,0E0,0E0,0E0,0E0,0E0,0E0,0E0,0E0,0E0,0E0,0E0,0E0,0E0,0E0,0E0],"parents":[2147483647,0,0,1,1,2,2,3,3,4,4,5,5,6,6,7,7,8,8,9,9,10,10,11,11,12,12,13,13,14,14,15,15,18,18,19,19,20,20,21,21,22,22,23,23,24,24,25,25,26,26,27,27,28,28,29,29,30,30],"right_children":[2,4,6,8,10,12,14,16,18,20,22,24,26,28,30,32,-1,-1,34,36,38,40,42,44,46,48,50,52,54,56,58,-1,-1,-1,-1,-1,-1,-1,-1,-1,-1,-1,-1,-1,-1,-1,-1,-1,-1,-1,-1,-1,-1,-1,-1,-1,-1,-1,-1],"split_conditions":[1.58E0,7.5E-1,2.46E0,7.84E1,6.4E0,2.12E0,3.16E0,1.12E0,3E-2,1.33E0,8.55E1,7.99E1,8.44E1,7.1E0,5E0,6.22E0,4.5447177E-3,2.9562406E-2,3.9E0,8.7E-1,1E0,1.67E0,1.43E0,3.3E0,9.3E0,5.3E0,8.7E0,3.62E1,2.5685E4,5.2E0,3.8E0,3.0299524E-2,7.57839E-3,5.51527E-4,1.9694908E-2,1.6006887E-2,9.437961E-3,1.4515226E-2,2.2211578E-3,2.0657668E-2,8.79319E-3,1.0171929E-2,4.135122E-4,-8.817581E-3,6.2909727E-3,-1.2052391E-3,1.3416165E-2,-5.8823614E-3,1.309685E-3,-7.196901E-3,3.689891E-3,-9.029788E-3,-5.31552E-3,7.6653186E-4,-5.5672633E-3,-1.174481E-2,-1.0063538E-2,-1.0808044E-2,-3.9624266E-4],"split_indices":[11,11,11,5,10,11,11,12,12,11,5,5,5,10,6,4,0,0,10,12,3,13,11,10,10,10,10,7,2,10,10,0,0,0,0,0,0,0,0,0,0,0,0,0,0,0,0,0,0,0,0,0,0,0,0,0,0,0,0],"split_type":[0,0,0,0,0,0,0,0,0,0,0,0,0,0,0,0,0,0,0,0,0,0,0,0,0,0,0,0,0,0,0,0,0,0,0,0,0,0,0,0,0,0,0,0,0,0,0,0,0,0,0,0,0,0,0,0,0,0,0],"sum_hessian":[1.4397076E3,3.716095E2,1.0680981E3,1.2402714E2,2.4758237E2,4.0380557E2,6.6429254E2,5.795467E1,6.6072464E1,1.3360208E2,1.1398028E2,2.4320895E2,1.605966E2,3.1572308E2,3.4856946E2,5.6511395E1,1.4432764E0,1.3348139E1,5.2724327E1,8.1303734E1,5.2298355E1,8.1265854E1,3.2714428E1,1.0757086E2,1.3563809E2,1.0088265E2,5.971395E1,2.7079514E2,4.492795E1,3.3582092E2,1.2748535E1,5.5427193E1,1.084202E0,2.1603181E0,5.056401E1,2.4505724E1,5.6798008E1,6.7109194E0,4.5587437E1,6.981175E1,1.1454097E1,2.5333881E1,7.3805475E0,6.806912E0,1.00763954E2,1.3237529E2,3.2628074E0,3.9828857E1,6.105379E1,5.755002E1,2.1639342E0,1.8878033E2,8.201482E1,2.0165304E1,2.476265E1,2.0174252E2,1.340784E2,4.8313713E0,7.917164E0],"tree_param":{"num_deleted":"0","num_feature":"17","num_nodes":"59","size_leaf_vector":"1"}},{"base_weights":[1.0740728E-4,1.6315496E0,-5.75035E-1,2.4852812E0,1.1928078E0,-2.4659213E-2,-9.1062933E-1,2.8740618E0,2.105525E0,8.564504E-1,1.5747939E0,1.8948816E-1,-3.4904924E-1,-7.1614474E-1,-1.0845665E0,2.9263747E0,4.5114523E-3,2.8874928E-2,1.8569297E0,1.1407725E0,3.996285E-1,1.8740873E0,7.9381615E-1,5.1951045E-1,-7.497848E-2,-1.5457684E-1,-6.705208E-1,-7.883035E-1,-2.74692E-1,-1.1060513E0,-4.811353E-1,2.954548E-2,7.523284E-3,-2.8710673E-3,1.9133585E-2,1.572605E-2,9.299669E-3,1.4293929E-2,2.1968896E-3,1.5184755E-2,2.3714747E-2,1.0022314E-2,4.0979113E-4,-8.77683E-3,6.2082093E-3,-1.1940378E-3,1.3241896E-2,-5.842892E-3,1.2959128E-3,-7.1532223E-3,3.6597552E-3,-8.983176E-3,-5.277807E-3,7.5893383E-4,-5.529556E-3,-1.1701319E-2,-1.0017273E-2,-1.0770211E-2,-3.927965E-4],"categories":[],"categories_nodes":[],"categories_segments":[],"categories_sizes":[],"default_left":[0,0,0,0,0,0,0,0,0,0,0,0,0,0,0,0,0,0,0,0,0,0,0,0,0,0,0,0,0,0,0,0,0,0,0,0,0,0,0,0,0,0,0,0,0,0,0,0,0,0,0,0,0,0,0,0,0,0,0],"id":2,"left_children":[1,3,5,7,9,11,13,15,17,19,21,23,25,27,29,31,-1,-1,33,35,37,39,41,43,45,47,49,51,53,55,57,-1,-1,-1,-1,-1,-1,-1,-1,-1,-1,-1,-1,-1,-1,-1,-1,-1,-1,-1,-1,-1,-1,-1,-1,-1,-1,-1,-1],"loss_changes":[1.3526334E3,1.377757E2,1.9683786E2,1.264386E1,3.0787018E1,2.8182838E1,2.1619934E1,6.263153E0,7.8171997E0,1.7103622E1,2.5607971E1,2.1374454E1,9.980286E0,9.834198E0,3.973755E0,1.3531494E0,0E0,0E0,7.1120605E0,6.0741577E0,9.581272E0,1.1092163E1,5.270302E0,1.5955858E1,8.6475E0,1.25066185E1,3.0711002E0,7.2831726E0,4.516125E0,1.0662842E0,3.5698502E0,0E0,0E0,0E0,0E0,0E0,0E0,0E0,0E0,0E0,0E0,0E0,0E0,0E0,0E0,0E0,0E0,0E0,0E0,0E0,0E0,0E0,0E0,0E0,0E0,0E0,0E0,0E0,0E0],"parents":[2147483647,0,0,1,1,2,2,3,3,4,4,5,5,6,6,7,7,8,8,9,9,10,10,11,11,12,12,13,13,14,14,15,15,18,18,19,19,20,20,21,21,22,22,23,23,24,24,25,25,26,26,27,27,28,28,29,29,30,30],"right_children":[2,4,6,8,10,12,14,16,18,20,22,24,26,28,30,32,-1,-1,34,36,38,40,42,44,46,48,50,52,54,56,58,-1,-1,-1,-1,-1,-1,-1,-1,-1,-1,-1,-1,-1,-1,-1,-1,-1,-1,-1,-1,-1,-1,-1,-1,-1,-1,-1,-1],"split_conditions":[1.58E0,7.5E-1,2.46E0,7.84E1,6.4E0,2.12E0,3.16E0,1.12E0,3E-2,1.33E0,8.55E1,7.99E1,8.44E1,7.1E0,5E0,6.22E0,4.5114523E-3,2.8874928E-2,3.6E0,8.7E-1,1E0,2.16E1,1.43E0,3.3E0,9.3E0,5.3E0,8.7E0,3.62E1,2.5685E4,5.2E0,3.8E0,2.954548E-2,7.523284E-3,-2.8710673E-3,1.9133585E-2,1.572605E-2,9.299669E-3,1.4293929E-2,2.1968896E-3,1.5184755E-2,2.3714747E-2,1.0022314E-2,4.0979113E-4,-8.77683E-3,6.2082093E-3,-1.1940378E-3,1.3241896E-2,-5.842892E-3,1.2959128E-3,-7.1532223E-3,3.6597552E-3,-8.983176E-3,-5.277807E-3,7.5893383E-4,-5.529556E-3,-1.1701319E-2,-1.0017273E-2,-1.0770211E-2,-3.927965E-4],"split_indices":[11,11,11,5,10,11,11,12,12,11,5,5,5,10,6,4,0,0,10,12,3,0,11,10,10,10,10,7,2,10,10,0,0,0,0,0,0,0,0,0,0,0,0,0,0,0,0,0,0,0,0,0,0,0,0,0,0,0,0],"split_type":[0,0,0,0,0,0,0,0,0,0,0,0,0,0,0,0,0,0,0,0,0,0,0,0,0,0,0,0,0,0,0,0,0,0,0,0,0,0,0,0,0,0,0,0,0,0,0,0,0,0,0,0,0,0,0,0,0,0,0],"sum_hessian":[1.4395612E3,3.7474033E2,1.0648208E3,1.2562557E2,2.4911476E2,4.037474E2,6.610734E2,5.882969E1,6.679588E1,1.3419319E2,1.1492156E2,2.4344926E2,1.6029814E2,3.1451807E2,3.465554E2,5.7382954E1,1.4467357E0,1.3552045E1,5.3243835E1,8.179037E1,5.2402824E1,8.207021E1,3.2851353E1,1.07872765E2,1.3557649E2,1.0080037E2,5.9497772E1,2.6965518E2,4.4862865E1,3.338364E2,1.2719014E1,5.629443E1,1.0885253E0,1.2605534E0,5.198328E1,2.4710728E1,5.707964E1,6.7618914E0,4.564093E1,5.021875E1,3.1851461E1,2.5469189E1,7.3821626E0,6.774936E0,1.01097824E2,1.3229077E2,3.285734E0,3.9704308E1,6.1096058E1,5.7329624E1,2.1681485E0,1.8787202E2,8.1783165E1,2.0173481E1,2.4689383E1,2.0047748E2,1.333589E2,4.803511E0,7.9155025E0],"tree_param":{"num_deleted":"0","num_feature":"17","num_nodes":"59","size_leaf_vector":"1"}},{"base_weights":[1.5965429E-4,1.6026113E0,-5.711012E-1,2.4311018E0,1.1741756E0,-2.4419025E-2,-9.060161E-1,2.8060524E0,2.0634964E0,8.4454036E-1,1.5471905E0,1.8744543E-1,-3.4625363E-1,-6.7105097E-1,-1.0496726E0,2.8562312E0,4.478463E-3,2.8220352E-2,1.8214669E0,1.1231498E0,3.9517123E-1,1.8384581E0,7.8305084E-1,5.1288086E-1,-7.417526E-2,-1.532029E-1,-6.662552E-1,-7.5781494E-1,-3.0889487E-1,-1.0689614E0,-4.4950348E-1,2.8830359E-2,7.4686683E-3,5.031672E-4,1.8935364E-2,1.5453602E-2,9.164337E-3,1.4078149E-2,2.1729132E-3,1.9839976E-2,8.259215E-3,9.87597E-3,4.0610245E-4,-8.736335E-3,6.126886E-3,-1.1829351E-3,1.3071183E-2,-5.8036395E-3,1.2822949E-3,-7.1097775E-3,3.6299E-3,-8.098588E-3,1.8713234E-5,3.0355304E-3,-5.262798E-3,-4.8528197E-3,-1.0797654E-2,-1.0732736E-2,-2.8557391E-4],"categories":[],"categories_nodes":[],"categories_segments":[],"categories_sizes":[],"default_left":[0,0,0,0,0,0,0,0,0,0,0,0,0,0,0,0,0,0,0,0,0,0,0,0,0,0,0,0,0,0,0,0,0,0,0,0,0,0,0,0,0,0,0,0,0,0,0,0,0,0,0,0,0,0,0,0,0,0,0],"id":3,"left_children":[1,3,5,7,9,11,13,15,17,19,21,23,25,27,29,31,-1,-1,33,35,37,39,41,43,45,47,49,51,53,55,57,-1,-1,-1,-1,-1,-1,-1,-1,-1,-1,-1,-1,-1,-1,-1,-1,-1,-1,-1,-1,-1,-1,-1,-1,-1,-1,-1,-1],"loss_changes":[1.3194305E3,1.3159924E2,1.9452261E2,1.1877258E1,2.9631073E1,2.7658577E1,2.1535095E1,5.9009094E0,7.436157E0,1.6554855E1,2.4564575E1,2.0870716E1,9.844013E0,7.7081223E0,4.232422E0,1.1954956E0,0E0,0E0,6.893738E0,5.8512344E0,9.332035E0,1.07178955E1,5.121128E0,1.5642738E1,8.473903E0,1.2302696E1,3.0329208E0,8.036209E0,6.8884206E0,1.9587402E0,3.750981E0,0E0,0E0,0E0,0E0,0E0,0E0,0E0,0E0,0E0,0E0,0E0,0E0,0E0,0E0,0E0,0E0,0E0,0E0,0E0,0E0,0E0,0E0,0E0,0E0,0E0,0E0,0E0,0E0],"parents":[2147483647,0,0,1,1,2,2,3,3,4,4,5,5,6,6,7,7,8,8,9,9,10,10,11,11,12,12,13,13,14,14,15,15,18,18,19,19,20,20,21,21,22,22,23,23,24,24,25,25,26,26,27,27,28,28,29,29,30,30],"right_children":[2,4,6,8,10,12,14,16,18,20,22,24,26,28,30,32,-1,-1,34,36,38,40,42,44,46,48,50,52,54,56,58,-1,-1,-1,-1,-1,-1,-1,-1,-1,-1,-1,-1,-1,-1,-1,-1,-1,-1,-1,-1,-1,-1,-1,-1,-1,-1,-1,-1],"split_conditions":[1.58E0,7.5E-1,2.46E0,7.84E1,6.4E0,2.12E0,3E0,1.12E0,3E-2,1.33E0,8.55E1,7.99E1,8.44E1,6.8E0,5E0,6.22E0,4.478463E-3,2.8220352E-2,3.9E0,8.7E-1,1E0,1.69E0,1.43E0,3.3E0,9.3E0,5.3E0,8.7E0,4.88E1,7.86E1,6.68E1,3.8E0,2.8830359E-2,7.4686683E-3,5.031672E-4,1.8935364E-2,1.5453602E-2,9.164337E-3,1.4078149E-2,2.1729132E-3,1.9839976E-2,8.259215E-3,9.87597E-3,4.0610245E-4,-8.736335E-3,6.126886E-3,-1.1829351E-3,1.3071183E-2,-5.8036395E-3,1.2822949E-3,-7.1097775E-3,3.6299E-3,-8.098588E-3,1.8713234E-5,3.0355304E-3,-5.262798E-3,-4.8528197E-3,-1.0797654E-2,-1.0732736E-2,-2.8557391E-4],"split_indices":[11,11,11,5,10,11,11,12,12,11,5,5,5,10,6,4,0,0,10,12,3,12,11,10,10,10,10,7,5,5,10,0,0,0,0,0,0,0,0,0,0,0,0,0,0,0,0,0,0,0,0,0,0,0,0,0,0,0,0],"split_type":[0,0,0,0,0,0,0,0,0,0,0,0,0,0,0,0,0,0,0,0,0,0,0,0,0,0,0,0,0,0,0,0,0,0,0,0,0,0,0,0,0,0,0,0,0,0,0,0,0,0,0,0,0,0,0,0,0,0,0],"sum_hessian":[1.4393424E3,3.777908E2,1.0615516E3,1.2718043E2,2.5061038E2,4.0368643E2,6.578652E2,5.9677353E1,6.7503075E1,1.34774E2,1.1583639E2,2.4368536E2,1.6000107E2,2.5175873E2,4.0610645E2,5.8227184E1,1.4501675E0,1.3749907E1,5.3753166E1,8.226823E1,5.250578E1,8.285035E1,3.2986034E1,1.0817002E2,1.3551535E2,1.0071839E2,5.9282684E1,2.022193E2,4.953944E1,3.9270425E2,1.3402172E1,5.7134373E1,1.0928116E0,2.1681314E0,5.1585033E1,2.4911526E1,5.73567E1,6.81195E0,4.569383E1,7.1599396E1,1.1250949E1,2.5602274E1,7.3837624E0,6.7430716E0,1.0142695E2,1.3220705E2,3.308307E0,3.95805E1,6.113789E1,5.711036E1,2.1723256E0,1.8919223E2,1.3027063E1,1.2873628E1,3.6665813E1,7.971434E0,3.8473282E2,4.775712E0,8.62646E0],"tree_param":{"num_deleted":"0","num_feature":"17","num_nodes":"59","size_leaf_vector":"1"}},{"base_weights":[2.158653E-4,1.5745649E0,-5.67185E-1,2.3793335E0,1.155948E0,-2.4181714E-2,-9.014186E-1,2.741379E0,2.0231493E0,8.3287174E-1,1.5202689E0,1.8542764E-1,-3.4347892E-1,-7.071815E-1,-1.0757711E0,2.7895763E0,4.4457493E-3,2.7596338E-2,1.7873498E0,1.1059483E0,3.9077458E-1,1.8038116E0,7.724926E-1,5.063599E-1,-7.338047E-2,-1.5184116E-1,-6.6201335E-1,-7.792176E-1,-2.6854458E-1,-1.0973078E0,-4.752811E-1,2.8151155E-2,7.4145356E-3,-2.8598693E-3,1.8409947E-2,1.5189151E-2,9.031866E-3,1.3867674E-2,2.149229E-3,1.4606342E-2,2.2830559E-2,9.73279E-3,4.024503E-4,-8.696092E-3,6.04696E-3,-1.1719278E-3,1.2903909E-2,-5.7646045E-3,1.268827E-3,-7.066563E-3,3.6003196E-3,-8.893948E-3,-5.1907334E-3,7.930311E-4,-5.4579535E-3,-1.1619108E-2,-9.922735E-3,-1.0695613E-2,-3.868984E-4],"categories":[],"categories_nodes":[],"categories_segments":[],"categories_sizes":[],"default_left":[0,0,0,0,0,0,0,0,0,0,0,0,0,0,0,0,0,0,0,0,0,0,0,0,0,0,0,0,0,0,0,0,0,0,0,0,0,0,0,0,0,0,0,0,0,0,0,0,0,0,0,0,0,0,0,0,0,0,0],"id":4,"left_children":[1,3,5,7,9,11,13,15,17,19,21,23,25,27,29,31,-1,-1,33,35,37,39,41,43,45,47,49,51,53,55,57,-1,-1,-1,-1,-1,-1,-1,-1,-1,-1,-1,-1,-1,-1,-1,-1,-1,-1,-1,-1,-1,-1,-1,-1,-1,-1,-1,-1],"loss_changes":[1.287275E3,1.2586389E2,1.9222778E2,1.1177734E1,2.8522339E1,2.7144152E1,2.1443726E1,5.567688E0,7.083374E0,1.6028229E1,2.3569763E1,2.037996E1,9.709454E0,9.682831E0,3.922058E0,1.0534973E0,0E0,0E0,6.671463E0,5.639801E0,9.091103E0,1.0582031E1,4.9771194E0,1.5336981E1,8.304384E0,1.2102001E1,2.995182E0,7.230545E0,4.4493837E0,1.0926514E0,3.5029738E0,0E0,0E0,0E0,0E0,0E0,0E0,0E0,0E0,0E0,0E0,0E0,0E0,0E0,0E0,0E0,0E0,0E0,0E0,0E0,0E0,0E0,0E0,0E0,0E0,0E0,0E0,0E0,0E0],"parents":[2147483647,0,0,1,1,2,2,3,3,4,4,5,5,6,6,7,7,8,8,9,9,10,10,11,11,12,12,13,13,14,14,15,15,18,18,19,19,20,20,21,21,22,22,23,23,24,24,25,25,26,26,27,27,28,28,29,29,30,30],"right_children":[2,4,6,8,10,12,14,16,18,20,22,24,26,28,30,32,-1,-1,34,36,38,40,42,44,46,48,50,52,54,56,58,-1,-1,-1,-1,-1,-1,-1,-1,-1,-1,-1,-1,-1,-1,-1,-1,-1,-1,-1,-1,-1,-1,-1,-1,-1,-1,-1,-1],"split_conditions":[1.58E0,7.5E-1,2.46E0,7.84E1,6.4E0,2.12E0,3.16E0,1.12E0,3E-2,1.33E0,8.55E1,7.99E1,8.44E1,7.1E0,5E0,6.22E0,4.4457493E-3,2.7596338E-2,3.6E0,8.7E-1,1E0,2.16E1,1.43E0,3.3E0,9.3E0,5.3E0,8.7E0,3.62E1,2.5685E4,5.2E0,3.8E0,2.8151155E-2,7.4145356E-3,-2.8598693E-3,1.8409947E-2,1.5189151E-2,9.031866E-3,1.3867674E-2,2.149229E-3,1.4606342E-2,2.2830559E-2,9.73279E-3,4.024503E-4,-8.696092E-3,6.04696E-3,-1.1719278E-3,1.2903909E-2,-5.7646045E-3,1.268827E-3,-7.066563E-3,3.6003196E-3,-8.893948E-3,-5.1907334E-3,7.930311E-4,-5.4579535E-3,-1.1619108E-2,-9.922735E-3,-1.0695613E-2,-3.868984E-4],"split_indices":[11,11,11,5,10,11,11,12,12,11,5,5,5,10,6,4,0,0,10,12,3,0,11,10,10,10,10,7,2,10,10,0,0,0,0,0,0,0,0,0,0,0,0,0,0,0,0,0,0,0,0,0,0,0,0,0,0,0,0],"split_type":[0,0,0,0,0,0,0,0,0,0,0,0,0,0,0,0,0,0,0,0,0,0,0,0,0,0,0,0,0,0,0,0,0,0,0,0,0,0,0,0,0,0,0,0,0,0,0,0,0,0,0,0,0,0,0,0,0,0,0],"sum_hessian":[1.4390544E3,3.8076974E2,1.0582848E3,1.2868874E2,2.5208102E2,4.0362274E2,6.54662E2,6.049832E1,6.8190414E1,1.3534471E2,1.16736305E2,2.4391734E2,1.597054E2,3.120638E2,3.4259818E2,5.904475E1,1.4535714E0,1.3941844E1,5.4248573E1,8.2737465E1,5.2607246E1,8.361779E1,3.3118515E1,1.0846275E2,1.3545459E2,1.00636696E2,5.90687E1,2.6737683E2,4.4686974E1,3.2993756E2,1.2660634E1,5.794769E1,1.0970614E0,1.2589746E0,5.2989597E1,2.5108204E1,5.7629257E1,6.8611126E0,4.574613E1,5.108478E1,3.2533012E1,2.5733168E1,7.385348E0,6.711321E0,1.0175143E2,1.3212407E2,3.3305304E0,3.9457428E1,6.117927E1,5.689223E1,2.1764662E0,1.8612823E2,8.1248604E1,2.0136742E1,2.4550232E1,1.9805714E2,1.318804E2,4.747975E0,7.912659E0],"tree_param":{"num_deleted":"0","num_feature":"17","num_nodes":"59","size_leaf_vector":"1"}},{"base_weights":[2.6493514E-4,1.5474291E0,-5.6330687E-1,2.3296933E0,1.1382384E0,-2.3947056E-2,-8.9686376E-1,2.6797974E0,1.9841732E0,8.214371E-1,1.4943073E0,1.834345E-1,-3.4072474E-1,-6.623077E-1,-1.0408176E0,2.7261515E0,4.413307E-3,2.700078E-2,1.7542542E0,1.0891529E0,3.8643745E-1,1.770563E0,7.6213545E-1,4.9994558E-1,-7.259422E-2,-1.5049121E-1,-6.57795E-1,-7.487414E-1,-3.0320856E-1,-1.0601475E0,-4.436174E-1,2.7505176E-2,7.3608854E-3,-2.8463455E-3,1.8065266E-2,1.2086674E-2,4.8738257E-3,1.3662308E-2,2.1258318E-3,1.9136114E-2,8.080246E-3,9.592673E-3,3.9882946E-4,-8.6560985E-3,5.968405E-3,-1.1610177E-3,1.273998E-2,-5.7257838E-3,1.255512E-3,-4.913746E-3,-1.0083391E-2,-8.008248E-3,6.685128E-5,3.0458057E-3,-5.199424E-3,-4.7569894E-3,-1.0710211E-2,-1.0658834E-2,-2.7537072E-4],"categories":[],"categories_nodes":[],"categories_segments":[],"categories_sizes":[],"default_left":[0,0,0,0,0,0,0,0,0,0,0,0,0,0,0,0,0,0,0,0,0,0,0,0,0,0,0,0,0,0,0,0,0,0,0,0,0,0,0,0,0,0,0,0,0,0,0,0,0,0,0,0,0,0,0,0,0,0,0],"id":5,"left_children":[1,3,5,7,9,11,13,15,17,19,21,23,25,27,29,31,-1,-1,33,35,37,39,41,43,45,47,49,51,53,55,57,-1,-1,-1,-1,-1,-1,-1,-1,-1,-1,-1,-1,-1,-1,-1,-1,-1,-1,-1,-1,-1,-1,-1,-1,-1,-1,-1,-1],"loss_changes":[1.2562052E3,1.204798E2,1.8996646E2,1.0548401E1,2.7482727E1,2.6639362E1,2.1341736E1,5.2604675E0,6.762726E0,1.5522614E1,2.2641632E1,1.9901863E1,9.576588E0,7.560425E0,4.177002E0,9.25354E-1,0E0,0E0,6.4542236E0,5.466469E0,8.858121E0,1.0207184E1,4.8380547E0,1.50383835E1,8.138833E0,1.1904495E1,2.996376E0,7.9350967E0,6.791546E0,1.9641418E0,3.6838298E0,0E0,0E0,0E0,0E0,0E0,0E0,0E0,0E0,0E0,0E0,0E0,0E0,0E0,0E0,0E0,0E0,0E0,0E0,0E0,0E0,0E0,0E0,0E0,0E0,0E0,0E0,0E0,0E0],"parents":[2147483647,0,0,1,1,2,2,3,3,4,4,5,5,6,6,7,7,8,8,9,9,10,10,11,11,12,12,13,13,14,14,15,15,18,18,19,19,20,20,21,21,22,22,23,23,24,24,25,25,26,26,27,27,28,28,29,29,30,30],"right_children":[2,4,6,8,10,12,14,16,18,20,22,24,26,28,30,32,-1,-1,34,36,38,40,42,44,46,48,50,52,54,56,58,-1,-1,-1,-1,-1,-1,-1,-1,-1,-1,-1,-1,-1,-1,-1,-1,-1,-1,-1,-1,-1,-1,-1,-1,-1,-1,-1,-1],"split_conditions":[1.58E0,7.5E-1,2.46E0,7.84E1,6.4E0,2.12E0,3E0,1.12E0,3E-2,1.33E0,8.55E1,7.99E1,8.44E1,6.8E0,5E0,6.22E0,4.413307E-3,2.700078E-2,3.6E0,8.68E1,1E0,1.67E0,1.43E0,3.3E0,9.3E0,5.3E0,3.81E1,4.88E1,7.86E1,6.68E1,3.8E0,2.7505176E-2,7.3608854E-3,-2.8463455E-3,1.8065266E-2,1.2086674E-2,4.8738257E-3,1.3662308E-2,2.1258318E-3,1.9136114E-2,8.080246E-3,9.592673E-3,3.9882946E-4,-8.6560985E-3,5.968405E-3,-1.1610177E-3,1.273998E-2,-5.7257838E-3,1.255512E-3,-4.913746E-3,-1.0083391E-2,-8.008248E-3,6.685128E-5,3.0458057E-3,-5.199424E-3,-4.7569894E-3,-1.0710211E-2,-1.0658834E-2,-2.7537072E-4],"split_indices":[11,11,11,5,10,11,11,12,12,11,5,5,5,10,6,4,0,0,10,5,3,13,11,10,10,10,7,7,5,5,10,0,0,0,0,0,0,0,0,0,0,0,0,0,0,0,0,0,0,0,0,0,0,0,0,0,0,0,0],"split_type":[0,0,0,0,0,0,0,0,0,0,0,0,0,0,0,0,0,0,0,0,0,0,0,0,0,0,0,0,0,0,0,0,0,0,0,0,0,0,0,0,0,0,0,0,0,0,0,0,0,0,0,0,0,0,0,0,0,0,0],"sum_hessian":[1.4387048E3,3.836717E2,1.0550332E3,1.3015546E2,2.5351624E2,4.0355634E2,6.514768E2,6.1293213E1,6.886225E1,1.3590547E2,1.1761077E2,2.4414525E2,1.594111E2,2.4989803E2,4.015788E2,5.9836266E1,1.4569479E0,1.4127972E1,5.4734276E1,8.3198235E1,5.2707237E1,8.436193E1,3.3248833E1,1.0875101E2,1.3539424E2,1.005553E2,5.885581E1,2.0054306E2,4.9354958E1,3.8823737E2,1.3341446E1,5.873499E1,1.1012743E0,1.257067E0,5.347721E1,6.857115E1,1.4627083E1,6.909389E0,4.5797848E1,7.2586365E1,1.1775571E1,2.5861914E1,7.3869205E0,6.679685E0,1.0207132E2,1.3204182E2,3.352408E0,3.9335094E1,6.1220203E1,4.153762E1,1.7318188E1,1.8755206E2,1.2991007E1,1.2866885E1,3.648807E1,7.9085336E0,3.8032883E2,4.720304E0,8.621141E0],"tree_param":{"num_deleted":"0","num_feature":"17","num_nodes":"59","size_leaf_vector":"1"}},{"base_weights":[3.0310664E-4,1.5210476E0,-5.5945295E-1,2.2821069E0,1.1208556E0,-2.3743315E-2,-8.9232355E-1,2.6210861E0,1.946598E0,8.101515E-1,1.468965E0,1.814655E-1,-3.3804902E-1,-6.9831645E-1,-1.0671216E0,2.6657221E0,4.3811337E-3,2.643175E-2,1.7222533E0,1.0726074E0,3.8215905E-1,1.7381957E0,7.519735E-1,4.93635E-1,-7.181625E-2,-1.4915326E-1,-6.5371996E-1,-7.702305E-1,-2.6248923E-1,-1.0887135E0,-4.6951386E-1,1.2607282E-2,2.7147789E-2,4.1479577E-4,1.7893728E-2,1.4747943E-2,8.7491395E-3,1.3461866E-2,2.1027208E-3,1.4064635E-2,2.200825E-2,9.455515E-3,3.9524373E-4,-8.616347E-3,5.8911815E-3,-1.1502022E-3,1.2579292E-2,-5.6871762E-3,1.2423448E-3,-4.8785E-3,-1.0040166E-2,-8.805759E-3,-5.104649E-3,8.262106E-4,-5.3871633E-3,-1.1538561E-2,-9.829467E-3,-1.06223915E-2,-3.8113914E-4],"categories":[],"categories_nodes":[],"categories_segments":[],"categories_sizes":[],"default_left":[0,0,0,0,0,0,0,0,0,0,0,0,0,0,0,0,0,0,0,0,0,0,0,0,0,0,0,0,0,0,0,0,0,0,0,0,0,0,0,0,0,0,0,0,0,0,0,0,0,0,0,0,0,0,0,0,0,0,0],"id":6,"left_children":[1,3,5,7,9,11,13,15,17,19,21,23,25,27,29,31,-1,-1,33,35,37,39,41,43,45,47,49,51,53,55,57,-1,-1,-1,-1,-1,-1,-1,-1,-1,-1,-1,-1,-1,-1,-1,-1,-1,-1,-1,-1,-1,-1,-1,-1,-1,-1,-1,-1],"loss_changes":[1.2260516E3,1.1546649E2,1.8771466E2,9.976013E0,2.6491272E1,2.6150532E1,2.1273804E1,4.9768677E0,6.4677124E0,1.5030991E1,2.1755066E1,1.9436016E1,9.450569E0,9.533691E0,3.871704E0,8.233032E-1,0E0,0E0,6.266815E0,5.440605E0,8.632753E0,1.011734E1,4.703718E0,1.4746721E1,7.977132E0,1.1710128E1,2.976118E0,7.178528E0,4.383258E0,1.1192627E0,3.4377177E0,0E0,0E0,0E0,0E0,0E0,0E0,0E0,0E0,0E0,0E0,0E0,0E0,0E0,0E0,0E0,0E0,0E0,0E0,0E0,0E0,0E0,0E0,0E0,0E0,0E0,0E0,0E0,0E0],"parents":[2147483647,0,0,1,1,2,2,3,3,4,4,5,5,6,6,7,7,8,8,9,9,10,10,11,11,12,12,13,13,14,14,15,15,18,18,19,19,20,20,21,21,22,22,23,23,24,24,25,25,26,26,27,27,28,28,29,29,30,30],"right_children":[2,4,6,8,10,12,14,16,18,20,22,24,26,28,30,32,-1,-1,34,36,38,40,42,44,46,48,50,52,54,56,58,-1,-1,-1,-1,-1,-1,-1,-1,-1,-1,-1,-1,-1,-1,-1,-1,-1,-1,-1,-1,-1,-1,-1,-1,-1,-1,-1,-1],"split_conditions":[1.58E0,7.5E-1,2.46E0,7.84E1,6.4E0,2.12E0,3.16E0,1.12E0,3E-2,1.33E0,8.55E1,7.99E1,8.44E1,7.1E0,5E0,6.26E1,4.3811337E-3,2.643175E-2,3.9E0,8.7E-1,1E0,2.16E1,1.43E0,3.3E0,9.3E0,5.3E0,3.81E1,3.62E1,2.5685E4,5.2E0,3.8E0,1.2607282E-2,2.7147789E-2,4.1479577E-4,1.7893728E-2,1.4747943E-2,8.7491395E-3,1.3461866E-2,2.1027208E-3,1.4064635E-2,2.200825E-2,9.455515E-3,3.9524373E-4,-8.616347E-3,5.8911815E-3,-1.1502022E-3,1.2579292E-2,-5.6871762E-3,1.2423448E-3,-4.8785E-3,-1.0040166E-2,-8.805759E-3,-5.104649E-3,8.262106E-4,-5.3871633E-3,-1.1538561E-2,-9.829467E-3,-1.06223915E-2,-3.8113914E-4],"split_indices":[11,11,11,5,10,11,11,12,12,11,5,5,5,10,6,5,0,0,10,12,3,0,11,10,10,10,7,7,2,10,10,0,0,0,0,0,0,0,0,0,0,0,0,0,0,0,0,0,0,0,0,0,0,0,0,0,0,0,0],"split_type":[0,0,0,0,0,0,0,0,0,0,0,0,0,0,0,0,0,0,0,0,0,0,0,0,0,0,0,0,0,0,0,0,0,0,0,0,0,0,0,0,0,0,0,0,0,0,0,0,0,0,0,0,0,0,0,0,0,0,0],"sum_hessian":[1.4383029E3,3.865115E2,1.0517914E3,1.3157954E2,2.5493196E2,4.034941E2,6.482972E2,6.2062645E1,6.951691E1,1.364612E2,1.18470764E2,2.4436919E2,1.5912492E2,3.0963293E2,3.3866428E2,6.060235E1,1.4602971E0,1.4308404E1,5.5208504E1,8.3655426E1,5.280577E1,8.509374E1,3.337702E1,1.09034874E2,1.353343E2,1.00474205E2,5.8650723E1,2.6511942E2,4.451351E1,3.2606168E2,1.2602585E1,2.945391E0,5.7656956E1,2.1821513E0,5.3026352E1,2.5440117E1,5.8215313E1,6.9567947E0,4.5848976E1,5.1910812E1,3.318293E1,2.5988544E1,7.3884764E0,6.6481676E0,1.0238671E2,1.3196037E2,3.3739438E0,3.9213512E1,6.1260696E1,4.1427124E1,1.7223595E1,1.8439894E2,8.072048E1,2.0100906E1,2.4412607E1,1.9564987E2,1.304118E2,4.6927023E0,7.9098825E0],"tree_param":{"num_deleted":"0","num_feature":"17","num_nodes":"59","size_leaf_vector":"1"}},{"base_weights":[3.4763227E-4,1.4955798E0,-5.556363E-1,2.2365668E0,1.1039995E0,-2.3541812E-2,-8.878246E-1,2.5651891E0,1.9104443E0,7.991647E-1,1.444497E0,1.795203E-1,-3.3539292E-1,-6.940344E-1,-1.0627896E0,2.6082253E0,4.349227E-3,2.5887499E-2,1.691406E0,1.056582E0,3.7793776E-1,1.7070884E0,7.420012E-1,4.8742604E-1,-7.104667E-2,-1.4782676E-1,-6.496676E-1,-7.658009E-1,-2.603253E-1,-1.0844104E0,-4.6663758E-1,2.6313366E-2,7.11234E-3,-2.8348505E-3,1.7412642E-2,1.2645181E-2,7.003283E-3,1.3266165E-2,2.0798857E-3,1.8424354E-2,7.5927298E-3,9.321223E-3,3.9168974E-4,-8.5768355E-3,5.815262E-3,-1.1394827E-3,1.2421757E-2,-5.6487797E-3,1.2293272E-3,-6.9453726E-3,3.6718464E-3,-8.760442E-3,-5.0681434E-3,8.179953E-4,-5.350464E-3,-1.1497193E-2,-9.784792E-3,-1.058628E-2,-3.7782246E-4],"categories":[],"categories_nodes":[],"categories_segments":[],"categories_sizes":[],"default_left":[0,0,0,0,0,0,0,0,0,0,0,0,0,0,0,0,0,0,0,0,0,0,0,0,0,0,0,0,0,0,0,0,0,0,0,0,0,0,0,0,0,0,0,0,0,0,0,0,0,0,0,0,0,0,0,0,0,0,0],"id":7,"left_children":[1,3,5,7,9,11,13,15,17,19,21,23,25,27,29,31,-1,-1,33,35,37,39,41,43,45,47,49,51,53,55,57,-1,-1,-1,-1,-1,-1,-1,-1,-1,-1,-1,-1,-1,-1,-1,-1,-1,-1,-1,-1,-1,-1,-1,-1,-1,-1,-1,-1],"loss_changes":[1.1969694E3,1.1076935E2,1.854957E2,9.455811E0,2.5553162E1,2.5670752E1,2.1170563E1,4.715271E0,6.192932E0,1.4564468E1,2.0926178E1,1.898208E1,9.326103E0,9.4327545E0,3.8464355E0,8.6172485E-1,0E0,0E0,6.073578E0,5.418442E0,8.414688E0,9.736572E0,4.5739117E0,1.4461819E1,7.8191776E0,1.15188465E1,2.967329E0,7.1223297E0,4.3156753E0,1.1242065E0,3.4060082E0,0E0,0E0,0E0,0E0,0E0,0E0,0E0,0E0,0E0,0E0,0E0,0E0,0E0,0E0,0E0,0E0,0E0,0E0,0E0,0E0,0E0,0E0,0E0,0E0,0E0,0E0,0E0,0E0],"parents":[2147483647,0,0,1,1,2,2,3,3,4,4,5,5,6,6,7,7,8,8,9,9,10,10,11,11,12,12,13,13,14,14,15,15,18,18,19,19,20,20,21,21,22,22,23,23,24,24,25,25,26,26,27,27,28,28,29,29,30,30],"right_children":[2,4,6,8,10,12,14,16,18,20,22,24,26,28,30,32,-1,-1,34,36,38,40,42,44,46,48,50,52,54,56,58,-1,-1,-1,-1,-1,-1,-1,-1,-1,-1,-1,-1,-1,-1,-1,-1,-1,-1,-1,-1,-1,-1,-1,-1,-1,-1,-1,-1],"split_conditions":[1.58E0,7.5E-1,2.46E0,7.84E1,6.4E0,2.12E0,3.16E0,1.12E0,3E-2,1.33E0,8.55E1,7.99E1,8.44E1,7.1E0,5E0,6.22E0,4.349227E-3,2.5887499E-2,3.6E0,3E0,1E0,1.69E0,1.43E0,3.3E0,9.3E0,5.3E0,8.7E0,3.62E1,2.5685E4,5.2E0,3.8E0,2.6313366E-2,7.11234E-3,-2.8348505E-3,1.7412642E-2,1.2645181E-2,7.003283E-3,1.3266165E-2,2.0798857E-3,1.8424354E-2,7.5927298E-3,9.321223E-3,3.9168974E-4,-8.5768355E-3,5.815262E-3,-1.1394827E-3,1.2421757E-2,-5.6487797E-3,1.2293272E-3,-6.9453726E-3,3.6718464E-3,-8.760442E-3,-5.0681434E-3,8.179953E-4,-5.350464E-3,-1.1497193E-2,-9.784792E-3,-1.058628E-2,-3.7782246E-4],"split_indices":[11,11,11,5,10,11,11,12,12,11,5,5,5,10,6,4,0,0,10,15,3,12,11,10,10,10,10,7,2,10,10,0,0,0,0,0,0,0,0,0,0,0,0,0,0,0,0,0,0,0,0,0,0,0,0,0,0,0,0],"split_type":[0,0,0,0,0,0,0,0,0,0,0,0,0,0,0,0,0,0,0,0,0,0,0,0,0,0,0,0,0,0,0,0,0,0,0,0,0,0,0,0,0,0,0,0,0,0,0,0,0,0,0,0,0,0,0,0,0,0,0],"sum_hessian":[1.4378335E3,3.8926794E2,1.0485656E3,1.3295871E2,2.5630923E2,4.0342926E2,6.451363E2,6.2805782E1,7.015293E1,1.3700276E2,1.19306465E2,2.4458917E2,1.588401E2,3.0845734E2,3.3667892E2,6.1342163E1,1.4636194E0,1.4483259E1,5.566967E1,8.4099884E1,5.2902878E1,8.5803345E1,3.3503124E1,1.093144E2,1.3527478E2,1.00393425E2,5.8446674E1,2.6400613E2,4.44512E1,3.2410547E2,1.2573457E1,6.0221363E1,1.1207968E0,1.2554444E0,5.4414223E1,5.149441E1,3.2605476E1,7.003341E0,4.5899536E1,7.4255806E1,1.1547534E1,2.6113104E1,7.39002E0,6.6167707E0,1.02697624E2,1.3187964E2,3.3951406E0,3.9092663E1,6.130076E1,5.6280224E1,2.166451E0,1.8350894E2,8.049721E1,2.0109726E1,2.4341473E1,1.9440016E2,1.297053E2,4.665172E0,7.9082847E0],"tree_param":{"num_deleted":"0","num_feature":"17","num_nodes":"59","size_leaf_vector":"1"}},{"base_weights":[3.834411E-4,1.470768E0,-5.518385E-1,2.192701E0,1.0874604E0,-2.3314297E-2,-8.8335323E-1,2.511615E0,1.875442E0,7.8834724E-1,1.4205875E0,1.7759861E-1,-3.3269766E-1,-6.4925325E-1,-1.0278467E0,2.5531504E0,4.3175844E-3,2.536642E-2,1.6614258E0,1.0408392E0,3.7377286E-1,1.676765E0,7.322139E-1,4.8131624E-1,-7.02851E-2,-1.4651194E-1,-6.4551353E-1,-7.3522615E-1,-2.9453784E-1,-1.0472465E0,-4.348113E-1,2.1976272E-2,2.873743E-2,-2.8214501E-3,1.7100852E-2,1.2327722E-2,6.6583E-3,1.3075033E-2,2.0573258E-3,1.3555012E-2,2.1243181E-2,9.189717E-3,3.8816742E-4,-8.53756E-3,5.740612E-3,-1.5602459E-3,5.8073252E-3,-5.610592E-3,1.2164533E-3,-4.796545E-3,-9.969139E-3,-7.874708E-3,1.6124625E-4,3.0972431E-3,-5.1109907E-3,-4.598713E-3,-1.0582504E-2,-1.0550492E-2,-2.5787117E-4],"categories":[],"categories_nodes":[],"categories_segments":[],"categories_sizes":[],"default_left":[0,0,0,0,0,0,0,0,0,0,0,0,0,0,0,0,0,0,0,0,0,0,0,0,0,0,0,0,0,0,0,0,0,0,0,0,0,0,0,0,0,0,0,0,0,0,0,0,0,0,0,0,0,0,0,0,0,0,0],"id":8,"left_children":[1,3,5,7,9,11,13,15,17,19,21,23,25,27,29,31,-1,-1,33,35,37,39,41,43,45,47,49,51,53,55,57,-1,-1,-1,-1,-1,-1,-1,-1,-1,-1,-1,-1,-1,-1,-1,-1,-1,-1,-1,-1,-1,-1,-1,-1,-1,-1,-1,-1],"loss_changes":[1.168689E3,1.0635834E2,1.8331287E2,8.979187E0,2.4654327E1,2.5193462E1,2.1082367E1,4.4719543E0,5.942169E0,1.4112679E1,2.013272E1,1.8539692E1,9.197922E0,7.3499985E0,4.098999E0,8.7197876E-1,0E0,0E0,5.884674E0,5.3360443E0,8.203612E0,9.701645E0,4.448452E0,1.4183462E1,7.6938834E0,1.133059E1,2.9743385E0,7.8259583E0,6.710828E0,1.9864502E0,3.5878346E0,0E0,0E0,0E0,0E0,0E0,0E0,0E0,0E0,0E0,0E0,0E0,0E0,0E0,0E0,0E0,0E0,0E0,0E0,0E0,0E0,0E0,0E0,0E0,0E0,0E0,0E0,0E0,0E0],"parents":[2147483647,0,0,1,1,2,2,3,3,4,4,5,5,6,6,7,7,8,8,9,9,10,10,11,11,12,12,13,13,14,14,15,15,18,18,19,19,20,20,21,21,22,22,23,23,24,24,25,25,26,26,27,27,28,28,29,29,30,30],"right_children":[2,4,6,8,10,12,14,16,18,20,22,24,26,28,30,32,-1,-1,34,36,38,40,42,44,46,48,50,52,54,56,58,-1,-1,-1,-1,-1,-1,-1,-1,-1,-1,-1,-1,-1,-1,-1,-1,-1,-1,-1,-1,-1,-1,-1,-1,-1,-1,-1,-1],"split_conditions":[1.58E0,7.5E-1,2.46E0,7.84E1,6.4E0,2.12E0,3E0,1.12E0,3E-2,1.33E0,8.55E1,7.99E1,8.44E1,6.8E0,5E0,6.7E0,4.3175844E-3,2.536642E-2,3.6E0,2.2E1,1E0,2.16E1,1.43E0,3.3E0,4E0,5.3E0,3.81E1,4.88E1,7.86E1,6.68E1,3.8E0,2.1976272E-2,2.873743E-2,-2.8214501E-3,1.7100852E-2,1.2327722E-2,6.6583E-3,1.3075033E-2,2.0573258E-3,1.3555012E-2,2.1243181E-2,9.189717E-3,3.8816742E-4,-8.53756E-3,5.740612E-3,-1.5602459E-3,5.8073252E-3,-5.610592E-3,1.2164533E-3,-4.796545E-3,-9.969139E-3,-7.874708E-3,1.6124625E-4,3.0972431E-3,-5.1109907E-3,-4.598713E-3,-1.0582504E-2,-1.0550492E-2,-2.5787117E-4],"split_indices":[11,11,11,5,10,11,11,12,12,11,5,5,5,10,6,10,0,0,10,0,3,0,11,10,6,10,7,7,5,5,10,0,0,0,0,0,0,0,0,0,0,0,0,0,0,0,0,0,0,0,0,0,0,0,0,0,0,0,0],"split_type":[0,0,0,0,0,0,0,0,0,0,0,0,0,0,0,0,0,0,0,0,0,0,0,0,0,0,0,0,0,0,0,0,0,0,0,0,0,0,0,0,0,0,0,0,0,0,0,0,0,0,0,0,0,0,0,0,0,0,0],"sum_hessian":[1.4373104E3,3.919674E2,1.045343E3,1.343008E2,2.5766663E2,4.0335547E2,6.4198755E2,6.3526417E1,7.0774376E1,1.3753824E2,1.2012838E2,2.4480534E2,1.5855013E2,2.4711668E2,3.9487085E2,6.20595E1,1.4669145E0,1.4652645E1,5.612173E1,8.453967E1,5.2998573E1,8.650122E1,3.3627163E1,1.095897E2,1.3521564E2,1.0031295E2,5.823717E1,1.980438E2,4.907289E1,3.8162115E2,1.3249708E1,3.3151184E1,2.8908316E1,1.2535521E0,5.4868176E1,5.440658E1,3.0133091E1,7.0490446E0,4.5949528E1,5.2700386E1,3.3800835E1,2.6235615E1,7.391549E0,6.5854955E0,1.030042E2,1.20151886E2,1.5063755E1,3.897256E1,6.1340393E1,4.117009E1,1.706708E1,1.851233E2,1.2920486E1,1.2833607E1,3.6239285E1,7.8047934E0,3.7381635E2,4.6377163E0,8.611992E0],"tree_param":{"num_deleted":"0","num_feature":"17","num_nodes":"59","size_leaf_vector":"1"}},{"base_weights":[4.3417487E-4,1.4467916E0,-5.480674E-1,2.1507685E0,1.0713658E0,-2.313429E-2,-8.78894E-1,2.4608862E0,1.8416262E0,7.7773464E-1,1.3974824E0,1.7566787E-1,-3.300808E-1,-6.853111E-1,-1.0543468E0,2.5010326E0,4.2862017E-3,2.4867035E-2,1.6323841E0,1.0254434E0,3.6966363E-1,1.6475902E0,7.2260606E-1,4.7530365E-1,-6.9579855E-2,-1.4520857E-1,-6.415052E-1,-7.5695556E-1,-2.544008E-1,-1.0760276E0,-4.6099824E-1,1.1878249E-2,2.5469994E-2,3.3144827E-4,1.6951866E-2,1.4168016E-2,8.332868E-3,1.2888318E-2,2.0350392E-3,1.7810727E-2,7.4418765E-3,5.9404164E-3,1.9565552E-2,-8.498515E-3,5.6672054E-3,-1.1219723E-3,1.2276463E-2,-5.572612E-3,1.2037229E-3,-4.7619794E-3,-9.92673E-3,-8.67374E-3,-4.983483E-3,-3.609997E-3,5.924247E-3,-1.1419032E-2,-9.693297E-3,-1.0515023E-2,-3.7229309E-4],"categories":[],"categories_nodes":[],"categories_segments":[],"categories_sizes":[],"default_left":[0,0,0,0,0,0,0,0,0,0,0,0,0,0,0,0,0,0,0,0,0,0,0,0,0,0,0,0,0,0,0,0,0,0,0,0,0,0,0,0,0,0,0,0,0,0,0,0,0,0,0,0,0,0,0,0,0,0,0],"id":9,"left_children":[1,3,5,7,9,11,13,15,17,19,21,23,25,27,29,31,-1,-1,33,35,37,39,41,43,45,47,49,51,53,55,57,-1,-1,-1,-1,-1,-1,-1,-1,-1,-1,-1,-1,-1,-1,-1,-1,-1,-1,-1,-1,-1,-1,-1,-1,-1,-1,-1,-1],"loss_changes":[1.1413826E3,1.0224609E2,1.8113269E2,8.563599E0,2.3809418E1,2.472851E1,2.1009613E1,4.2489014E0,5.7103424E0,1.3677986E1,1.938971E1,1.811209E1,9.076513E0,9.28717E0,3.797821E0,8.226013E-1,0E0,0E0,5.725235E0,5.2846603E0,7.9992514E0,9.307724E0,4.350403E0,1.3911484E1,7.6653967E0,1.1145321E1,2.9543266E0,7.071472E0,4.301434E0,1.1512451E0,3.3430498E0,0E0,0E0,0E0,0E0,0E0,0E0,0E0,0E0,0E0,0E0,0E0,0E0,0E0,0E0,0E0,0E0,0E0,0E0,0E0,0E0,0E0,0E0,0E0,0E0,0E0,0E0,0E0,0E0],"parents":[2147483647,0,0,1,1,2,2,3,3,4,4,5,5,6,6,7,7,8,8,9,9,10,10,11,11,12,12,13,13,14,14,15,15,18,18,19,19,20,20,21,21,22,22,23,23,24,24,25,25,26,26,27,27,28,28,29,29,30,30],"right_children":[2,4,6,8,10,12,14,16,18,20,22,24,26,28,30,32,-1,-1,34,36,38,40,42,44,46,48,50,52,54,56,58,-1,-1,-1,-1,-1,-1,-1,-1,-1,-1,-1,-1,-1,-1,-1,-1,-1,-1,-1,-1,-1,-1,-1,-1,-1,-1,-1,-1],"split_conditions":[1.58E0,7.5E-1,2.46E0,7.84E1,6.4E0,2.12E0,3.16E0,1.12E0,3E-2,1.33E0,8.55E1,7.99E1,8.44E1,7.1E0,5E0,6.26E1,4.2862017E-3,2.4867035E-2,3.9E0,8.7E-1,1E0,1.67E0,1.79E0,3.3E0,9.3E0,5.3E0,3.81E1,3.62E1,4E0,5.2E0,3.8E0,1.1878249E-2,2.5469994E-2,3.3144827E-4,1.6951866E-2,1.4168016E-2,8.332868E-3,1.2888318E-2,2.0350392E-3,1.7810727E-2,7.4418765E-3,5.9404164E-3,1.9565552E-2,-8.498515E-3,5.6672054E-3,-1.1219723E-3,1.2276463E-2,-5.572612E-3,1.2037229E-3,-4.7619794E-3,-9.92673E-3,-8.67374E-3,-4.983483E-3,-3.609997E-3,5.924247E-3,-1.1419032E-2,-9.693297E-3,-1.0515023E-2,-3.7229309E-4],"split_indices":[11,11,11,5,10,11,11,12,12,11,5,5,5,10,6,5,0,0,10,12,3,13,13,10,10,10,7,7,6,10,10,0,0,0,0,0,0,0,0,0,0,0,0,0,0,0,0,0,0,0,0,0,0,0,0,0,0,0,0],"split_type":[0,0,0,0,0,0,0,0,0,0,0,0,0,0,0,0,0,0,0,0,0,0,0,0,0,0,0,0,0,0,0,0,0,0,0,0,0,0,0,0,0,0,0,0,0,0,0,0,0,0,0,0,0,0,0,0,0,0,0],"sum_hessian":[1.4367252E3,3.9458813E2,1.042137E3,1.3559648E2,2.5899167E2,4.0329147E2,6.388455E2,6.4216774E1,7.137971E1,1.3806477E2,1.2092689E2,2.4502327E2,1.582682E2,3.0606256E2,3.32783E2,6.274659E1,1.470183E0,1.4816676E1,5.6563034E1,8.49719E1,5.309287E1,8.71777E1,3.3749187E1,1.0986081E2,1.3516246E2,1.0023282E2,5.803539E1,2.6178134E2,4.4281235E1,3.2026703E2,1.2515957E1,3.0298238E0,5.9716766E1,2.195043E0,5.436799E1,2.5883265E1,5.908864E1,7.0939145E0,4.5998955E1,7.510851E1,1.206919E1,3.1906303E1,1.8428833E0,6.5543447E0,1.03306465E2,1.3174771E2,3.4147582E0,3.8853207E1,6.137961E1,4.1062054E1,1.6973335E1,1.8180249E2,7.9978836E1,3.983987E1,4.4413657E0,1.920145E2,1.2825253E2,4.610337E0,7.90562E0],"tree_param":{"num_deleted":"0","num_feature":"17","num_nodes":"59","size_leaf_vector":"1"}},{"base_weights":[4.840909E-4,1.4235107E0,-5.443237E-1,2.1102922E0,1.0557072E0,-2.293909E-2,-8.744683E-1,2.4118958E0,1.8090228E0,7.6737046E-1,1.3750894E0,1.7379285E-1,-3.2748327E-1,-6.8108284E-1,-1.050115E0,2.4507256E0,4.2550806E-3,2.4387999E-2,1.6043396E0,1.0104734E0,3.6560848E-1,1.6191233E0,7.137641E-1,4.693856E-1,-6.883272E-2,-1.4391667E-1,-6.3751864E-1,-7.525951E-1,-2.5216347E-1,-1.0718272E0,-4.581828E-1,2.110233E-2,2.7582666E-2,-2.8096815E-3,1.650888E-2,1.2124808E-2,6.644062E-3,1.2705855E-2,2.0130165E-3,1.3075558E-2,2.0527788E-2,8.971283E-3,3.1641757E-4,-8.459697E-3,5.5950074E-3,-1.5389516E-3,5.7458463E-3,-5.534841E-3,1.1911337E-3,-6.8261432E-3,3.7410073E-3,-8.629142E-3,-4.9476717E-3,8.757733E-4,-5.2623567E-3,-1.1378831E-2,-9.649483E-3,-1.0479866E-2,-3.690531E-4],"categories":[],"categories_nodes":[],"categories_segments":[],"categories_sizes":[],"default_left":[0,0,0,0,0,0,0,0,0,0,0,0,0,0,0,0,0,0,0,0,0,0,0,0,0,0,0,0,0,0,0,0,0,0,0,0,0,0,0,0,0,0,0,0,0,0,0,0,0,0,0,0,0,0,0,0,0,0,0],"id":10,"left_children":[1,3,5,7,9,11,13,15,17,19,21,23,25,27,29,31,-1,-1,33,35,37,39,41,43,45,47,49,51,53,55,57,-1,-1,-1,-1,-1,-1,-1,-1,-1,-1,-1,-1,-1,-1,-1,-1,-1,-1,-1,-1,-1,-1,-1,-1,-1,-1,-1,-1],"loss_changes":[1.1149095E3,9.834308E1,1.7898712E2,8.163086E0,2.300644E1,2.427516E1,2.0912567E1,4.0393677E0,5.49321E0,1.3263153E1,1.8647293E1,1.7691666E1,8.956579E0,9.193176E0,3.7734375E0,9.248352E-1,0E0,0E0,5.5531006E0,5.234009E0,7.8013296E0,9.319687E0,4.332159E0,1.3645687E1,7.5375E0,1.0962994E1,2.9393806E0,7.0162506E0,4.256466E0,1.1564941E0,3.3124766E0,0E0,0E0,0E0,0E0,0E0,0E0,0E0,0E0,0E0,0E0,0E0,0E0,0E0,0E0,0E0,0E0,0E0,0E0,0E0,0E0,0E0,0E0,0E0,0E0,0E0,0E0,0E0,0E0],"parents":[2147483647,0,0,1,1,2,2,3,3,4,4,5,5,6,6,7,7,8,8,9,9,10,10,11,11,12,12,13,13,14,14,15,15,18,18,19,19,20,20,21,21,22,22,23,23,24,24,25,25,26,26,27,27,28,28,29,29,30,30],"right_children":[2,4,6,8,10,12,14,16,18,20,22,24,26,28,30,32,-1,-1,34,36,38,40,42,44,46,48,50,52,54,56,58,-1,-1,-1,-1,-1,-1,-1,-1,-1,-1,-1,-1,-1,-1,-1,-1,-1,-1,-1,-1,-1,-1,-1,-1,-1,-1,-1,-1],"split_conditions":[1.58E0,7.5E-1,2.46E0,7.84E1,6.4E0,2.12E0,3.16E0,1.12E0,3E-2,1.33E0,8.55E1,7.99E1,8.44E1,7.1E0,5E0,6.7E0,4.2550806E-3,2.4387999E-2,3.6E0,3E0,1E0,2.16E1,1.43E0,3.3E0,4E0,5.3E0,8.7E0,3.62E1,2.5685E4,5.2E0,3.8E0,2.110233E-2,2.7582666E-2,-2.8096815E-3,1.650888E-2,1.2124808E-2,6.644062E-3,1.2705855E-2,2.0130165E-3,1.3075558E-2,2.0527788E-2,8.971283E-3,3.1641757E-4,-8.459697E-3,5.5950074E-3,-1.5389516E-3,5.7458463E-3,-5.534841E-3,1.1911337E-3,-6.8261432E-3,3.7410073E-3,-8.629142E-3,-4.9476717E-3,8.757733E-4,-5.2623567E-3,-1.1378831E-2,-9.649483E-3,-1.0479866E-2,-3.690531E-4],"split_indices":[11,11,11,5,10,11,11,12,12,11,5,5,5,10,6,10,0,0,10,15,3,0,11,10,6,10,10,7,2,10,10,0,0,0,0,0,0,0,0,0,0,0,0,0,0,0,0,0,0,0,0,0,0,0,0,0,0,0,0],"split_type":[0,0,0,0,0,0,0,0,0,0,0,0,0,0,0,0,0,0,0,0,0,0,0,0,0,0,0,0,0,0,0,0,0,0,0,0,0,0,0,0,0,0,0,0,0,0,0,0,0,0,0,0,0,0,0,0,0,0,0],"sum_hessian":[1.4360815E3,3.97142E2,1.0389395E3,1.3685735E2,2.6028467E2,4.0321973E2,6.357198E2,6.488981E1,7.196754E1,1.3857892E2,1.21705734E2,2.4523204E2,1.5798767E2,3.0490244E2,3.3081732E2,6.341638E1,1.4734248E0,1.4975462E1,5.6992073E1,8.539313E1,5.3185802E1,8.7842804E1,3.3862934E1,1.10127815E2,1.3510423E2,1.0015301E2,5.783467E1,2.6068472E2,4.421771E1,3.1833023E2,1.2487096E1,3.3826817E1,2.9589565E1,1.2518892E0,5.5740185E1,5.233839E1,3.3054733E1,7.1379657E0,4.6047836E1,5.345343E1,3.4389374E1,2.6440222E1,7.4227114E0,6.5233197E0,1.0360449E2,1.2000049E2,1.5103747E1,3.87346E1,6.1418404E1,5.5677906E1,2.1567662E0,1.8092421E2,7.9760506E1,2.0047377E1,2.4170332E1,1.9077567E2,1.2755457E2,4.5830374E0,7.904058E0],"tree_param":{"num_deleted":"0","num_feature":"17","num_nodes":"59","size_leaf_vector":"1"}},{"base_weights":[5.299229E-4,1.4008751E0,-5.406065E-1,2.0714233E0,1.0403471E0,-2.2734495E-2,-8.700752E-1,2.3652804E0,1.7773948E0,7.5716025E-1,1.3532242E0,1.7190866E-1,-3.2484537E-1,-6.363914E-1,-1.0151571E0,2.3971455E0,2.5368645E-3,2.3928067E-2,1.5770365E0,9.957552E-1,3.6160702E-1,1.591699E0,7.044853E-1,4.6356055E-1,-6.814126E-2,-1.4263597E-1,-6.3342685E-1,-7.2191715E-1,-2.859682E-1,-1.0346273E0,-4.2640364E-1,2.0539964E-2,2.7095364E-2,-2.7964045E-3,1.6225297E-2,1.1097572E-2,4.2348607E-3,1.2527504E-2,1.9912587E-3,1.2869598E-2,2.0146355E-2,5.775703E-3,1.9252973E-2,-8.421103E-3,5.523997E-3,-1.1047502E-3,1.2133747E-2,-5.4972745E-3,1.1786853E-3,-4.681346E-3,-9.857216E-3,-7.7432333E-3,2.5292617E-4,3.1508782E-3,-5.024252E-3,-4.4424566E-3,-1.0457663E-2,-1.0445014E-2,-2.4492614E-4],"categories":[],"categories_nodes":[],"categories_segments":[],"categories_sizes":[],"default_left":[0,0,0,0,0,0,0,0,0,0,0,0,0,0,0,0,0,0,0,0,0,0,0,0,0,0,0,0,0,0,0,0,0,0,0,0,0,0,0,0,0,0,0,0,0,0,0,0,0,0,0,0,0,0,0,0,0,0,0],"id":11,"left_children":[1,3,5,7,9,11,13,15,17,19,21,23,25,27,29,31,-1,-1,33,35,37,39,41,43,45,47,49,51,53,55,57,-1,-1,-1,-1,-1,-1,-1,-1,-1,-1,-1,-1,-1,-1,-1,-1,-1,-1,-1,-1,-1,-1,-1,-1,-1,-1,-1,-1],"loss_changes":[1.0892202E3,9.469879E1,1.76874E2,7.812561E0,2.2238556E1,2.3821096E1,2.083548E1,3.868744E0,5.2943573E0,1.2860954E1,1.7980286E1,1.7285284E1,8.832907E0,7.1475525E0,4.020691E0,1.4483337E0,0E0,0E0,5.387619E0,5.193489E0,7.6095815E0,8.940872E0,4.307989E0,1.338592E1,7.5150523E0,1.0783559E1,2.9525852E0,7.7174454E0,6.636745E0,2.008545E0,3.4923072E0,0E0,0E0,0E0,0E0,0E0,0E0,0E0,0E0,0E0,0E0,0E0,0E0,0E0,0E0,0E0,0E0,0E0,0E0,0E0,0E0,0E0,0E0,0E0,0E0,0E0,0E0,0E0,0E0],"parents":[2147483647,0,0,1,1,2,2,3,3,4,4,5,5,6,6,7,7,8,8,9,9,10,10,11,11,12,12,13,13,14,14,15,15,18,18,19,19,20,20,21,21,22,22,23,23,24,24,25,25,26,26,27,27,28,28,29,29,30,30],"right_children":[2,4,6,8,10,12,14,16,18,20,22,24,26,28,30,32,-1,-1,34,36,38,40,42,44,46,48,50,52,54,56,58,-1,-1,-1,-1,-1,-1,-1,-1,-1,-1,-1,-1,-1,-1,-1,-1,-1,-1,-1,-1,-1,-1,-1,-1,-1,-1,-1,-1],"split_conditions":[1.58E0,7.5E-1,2.46E0,7.84E1,6.4E0,2.12E0,3E0,1.14E0,3E-2,1.33E0,8.55E1,7.99E1,8.44E1,6.8E0,5E0,6.7E0,2.5368645E-3,2.3928067E-2,3.6E0,8.68E1,1E0,2.16E1,1.79E0,3.3E0,9.3E0,5.3E0,3.81E1,4.88E1,7.86E1,6.68E1,3.8E0,2.0539964E-2,2.7095364E-2,-2.7964045E-3,1.6225297E-2,1.1097572E-2,4.2348607E-3,1.2527504E-2,1.9912587E-3,1.2869598E-2,2.0146355E-2,5.775703E-3,1.9252973E-2,-8.421103E-3,5.523997E-3,-1.1047502E-3,1.2133747E-2,-5.4972745E-3,1.1786853E-3,-4.681346E-3,-9.857216E-3,-7.7432333E-3,2.5292617E-4,3.1508782E-3,-5.024252E-3,-4.4424566E-3,-1.0457663E-2,-1.0445014E-2,-2.4492614E-4],"split_indices":[11,11,11,5,10,11,11,12,12,11,5,5,5,10,6,10,0,0,10,5,3,0,13,10,10,10,7,7,5,5,10,0,0,0,0,0,0,0,0,0,0,0,0,0,0,0,0,0,0,0,0,0,0,0,0,0,0,0,0],"split_type":[0,0,0,0,0,0,0,0,0,0,0,0,0,0,0,0,0,0,0,0,0,0,0,0,0,0,0,0,0,0,0,0,0,0,0,0,0,0,0,0,0,0,0,0,0,0,0,0,0,0,0,0,0,0,0,0,0,0,0],"sum_hessian":[1.4353881E3,3.9963345E2,1.0357546E3,1.3807722E2,2.615562E2,4.0314474E2,6.3260986E2,6.553552E1,7.25417E1,1.3908739E2,1.22468834E2,2.4544263E2,1.5770213E2,2.4437721E2,3.882326E2,6.442805E1,1.1074803E0,1.5129116E1,5.7412586E1,8.581001E1,5.3277378E1,8.84875E1,3.3981327E1,1.1039077E2,1.3505186E2,1.00073524E2,5.76286E1,1.9558244E2,4.879477E1,3.7507156E2,1.3161039E1,3.4312363E1,3.011568E1,1.2500124E0,5.6162575E1,7.0772224E1,1.5037788E1,7.18121E0,4.6096165E1,5.3780125E1,3.470738E1,3.21157E1,1.8656288E0,6.4924226E0,1.03898346E2,1.3161778E2,3.4340851E0,3.861674E1,6.1456783E1,4.080992E1,1.681868E1,1.8273021E2,1.2852236E1,1.2798986E1,3.5995785E1,7.7026677E0,3.673689E2,4.5558205E0,8.605219E0],"tree_param":{"num_deleted":"0","num_feature":"17","num_nodes":"59","size_leaf_vector":"1"}},{"base_weights":[5.8890757E-4,1.3789054E0,-5.369069E-1,2.033926E0,1.0254018E0,-2.2543207E-2,-8.6569184E-1,2.3204587E0,1.7467803E0,7.6144004E-1,1.3492564E0,1.7007898E-1,-3.2228595E-1,-6.724955E-1,-1.0418644E0,2.3570871E0,4.1671754E-3,-2.18693E-3,1.7794148E0,1.02317E0,3.2837737E-1,1.5827342E0,6.9599867E-1,4.578261E-1,-6.740836E-2,-1.4136639E-1,-6.294829E-1,-7.4388516E-1,-2.463678E-1,-1.063641E0,-4.526653E-1,2.378831E-2,6.3370382E-3,2.335525E-2,1.5944505E-2,-4.1944446E-4,1.0801967E-2,9.752367E-3,1.0590724E-3,1.7139554E-2,6.4692106E-3,4.1257343E-3,1.1664035E-2,-8.382728E-3,5.454141E-3,-1.5179702E-3,5.6851306E-3,-5.45991E-3,1.1663748E-3,-4.6474463E-3,-9.8155765E-3,-8.543843E-3,-4.8644063E-3,-3.5263195E-3,5.917362E-3,-1.1302894E-2,-9.559636E-3,-1.0410462E-2,-3.6370798E-4],"categories":[],"categories_nodes":[],"categories_segments":[],"categories_sizes":[],"default_left":[0,0,0,0,0,0,0,0,0,0,0,0,0,0,0,0,0,0,0,0,0,0,0,0,0,0,0,0,0,0,0,0,0,0,0,0,0,0,0,0,0,0,0,0,0,0,0,0,0,0,0,0,0,0,0,0,0,0,0],"id":12,"left_children":[1,3,5,7,9,11,13,15,17,19,21,23,25,27,29,31,-1,-1,33,35,37,39,41,43,45,47,49,51,53,55,57,-1,-1,-1,-1,-1,-1,-1,-1,-1,-1,-1,-1,-1,-1,-1,-1,-1,-1,-1,-1,-1,-1,-1,-1,-1,-1,-1,-1],"loss_changes":[1.0643153E3,9.124347E1,1.747738E2,7.4869385E0,2.1523376E1,2.3384577E1,2.0759277E1,3.7009583E0,5.1421356E0,1.6397552E1,1.6768417E1,1.6885618E1,8.715923E0,9.050903E0,3.7265015E0,9.5370483E-1,0E0,0E0,3.784912E0,5.605858E0,8.11183E0,9.394119E0,3.8697166E0,1.313199E1,7.384385E0,1.0606964E1,2.9327888E0,6.9663086E0,4.22096E0,1.1839294E0,3.2517185E0,0E0,0E0,0E0,0E0,0E0,0E0,0E0,0E0,0E0,0E0,0E0,0E0,0E0,0E0,0E0,0E0,0E0,0E0,0E0,0E0,0E0,0E0,0E0,0E0,0E0,0E0,0E0,0E0],"parents":[2147483647,0,0,1,1,2,2,3,3,4,4,5,5,6,6,7,7,8,8,9,9,10,10,11,11,12,12,13,13,14,14,15,15,18,18,19,19,20,20,21,21,22,22,23,23,24,24,25,25,26,26,27,27,28,28,29,29,30,30],"right_children":[2,4,6,8,10,12,14,16,18,20,22,24,26,28,30,32,-1,-1,34,36,38,40,42,44,46,48,50,52,54,56,58,-1,-1,-1,-1,-1,-1,-1,-1,-1,-1,-1,-1,-1,-1,-1,-1,-1,-1,-1,-1,-1,-1,-1,-1,-1,-1,-1,-1],"split_conditions":[1.58E0,7.5E-1,2.46E0,7.84E1,6.5E0,2.12E0,3.16E0,1.12E0,3.4E0,1.33E0,8.54E1,7.99E1,8.44E1,7.1E0,5E0,6.22E0,4.1671754E-3,-2.18693E-3,3E-2,1.3E1,7.51E1,1.69E0,4.01E0,3.3E0,4E0,5.3E0,3.81E1,3.62E1,4E0,5.2E0,3.8E0,2.378831E-2,6.3370382E-3,2.335525E-2,1.5944505E-2,-4.1944446E-4,1.0801967E-2,9.752367E-3,1.0590724E-3,1.7139554E-2,6.4692106E-3,4.1257343E-3,1.1664035E-2,-8.382728E-3,5.454141E-3,-1.5179702E-3,5.6851306E-3,-5.45991E-3,1.1663748E-3,-4.6474463E-3,-9.8155765E-3,-8.543843E-3,-4.8644063E-3,-3.5263195E-3,5.917362E-3,-1.1302894E-2,-9.559636E-3,-1.0410462E-2,-3.6370798E-4],"split_indices":[11,11,11,5,10,11,11,12,10,11,5,5,5,10,6,4,0,0,12,7,5,12,4,10,6,10,7,7,6,10,10,0,0,0,0,0,0,0,0,0,0,0,0,0,0,0,0,0,0,0,0,0,0,0,0,0,0,0,0],"split_type":[0,0,0,0,0,0,0,0,0,0,0,0,0,0,0,0,0,0,0,0,0,0,0,0,0,0,0,0,0,0,0,0,0,0,0,0,0,0,0,0,0,0,0,0,0,0,0,0,0,0,0,0,0,0,0,0,0,0,0],"sum_hessian":[1.434635E3,4.0205862E2,1.0325764E3,1.3926166E2,2.6279697E2,4.0306885E2,6.2950757E2,6.61609E1,7.310076E1,1.4663301E2,1.1616395E2,2.4564427E2,1.5742456E2,3.0254477E2,3.269628E2,6.467834E1,1.482563E0,1.1008153E0,7.199995E1,9.05467E1,5.608632E1,8.452974E1,3.1634209E1,1.1064975E2,1.3499452E2,9.9994385E1,5.743018E1,2.584934E2,4.4051376E1,3.1453262E2,1.2430171E1,6.349686E1,1.1814716E0,1.5068459E1,5.6931488E1,4.614987E0,8.593171E1,1.3487136E1,4.2599182E1,7.340523E1,1.112451E1,2.0911694E1,1.0722515E1,6.461655E0,1.04188095E2,1.19851204E2,1.5143314E1,3.849963E1,6.149476E1,4.070434E1,1.6725838E1,1.7924146E2,7.925193E1,3.960861E1,4.4427705E0,1.8841391E2,1.26118706E2,4.528687E0,7.901484E0],"tree_param":{"num_deleted":"0","num_feature":"17","num_nodes":"59","size_leaf_vector":"1"}},{"base_weights":[6.075124E-4,1.3573549E0,-5.332418E-1,1.99757E0,1.010624E0,-2.2370521E-2,-8.6134124E-1,2.2770002E0,1.7171174E0,7.3694766E-1,1.3116281E0,1.6823983E-1,-3.1974536E-1,-6.6833425E-1,-1.0377259E0,2.3070512E0,2.4970777E-3,-2.176751E-3,1.7490041E0,9.664722E-1,3.5399017E-1,1.5394391E0,6.8726414E-1,4.5218036E-1,-6.673051E-2,-1.4010793E-1,-6.2556034E-1,-7.3959094E-1,-2.4418998E-1,-1.0595359E0,-4.4990852E-1,1.976176E-2,2.6090564E-2,2.2934023E-2,1.567757E-2,1.1514835E-2,6.0594594E-3,1.2309152E-2,1.9357122E-3,1.24315955E-2,1.9504432E-2,5.6224153E-3,1.8898945E-2,-8.344569E-3,5.3854156E-3,1.4341281E-3,-3.2362847E-3,-5.4227477E-3,1.154199E-3,-4.6137446E-3,-9.774214E-3,-8.499928E-3,-4.8292745E-3,9.314149E-4,-5.175838E-3,-1.1263783E-2,-9.516625E-3,-1.03762E-2,-3.6054192E-4],"categories":[],"categories_nodes":[],"categories_segments":[],"categories_sizes":[],"default_left":[0,0,0,0,0,0,0,0,0,0,0,0,0,0,0,0,0,0,0,0,0,0,0,0,0,0,0,0,0,0,0,0,0,0,0,0,0,0,0,0,0,0,0,0,0,0,0,0,0,0,0,0,0,0,0,0,0,0,0],"id":13,"left_children":[1,3,5,7,9,11,13,15,17,19,21,23,25,27,29,31,-1,-1,33,35,37,39,41,43,45,47,49,51,53,55,57,-1,-1,-1,-1,-1,-1,-1,-1,-1,-1,-1,-1,-1,-1,-1,-1,-1,-1,-1,-1,-1,-1,-1,-1,-1,-1,-1,-1],"loss_changes":[1.0399939E3,8.798297E1,1.7269589E2,7.1724854E0,2.0865936E1,2.2953402E1,2.0666138E1,3.5525818E0,4.9859467E0,1.2060188E1,1.6711823E1,1.6499264E1,8.60037E0,8.958954E0,3.7029114E0,1.5050049E0,0E0,0E0,3.6613312E0,5.1483E0,7.422066E0,8.6232605E0,4.2305794E0,1.2883757E1,7.3853445E0,1.0433163E1,2.913189E0,6.911972E0,4.1973405E0,1.1893921E0,3.2222202E0,0E0,0E0,0E0,0E0,0E0,0E0,0E0,0E0,0E0,0E0,0E0,0E0,0E0,0E0,0E0,0E0,0E0,0E0,0E0,0E0,0E0,0E0,0E0,0E0,0E0,0E0,0E0,0E0],"parents":[2147483647,0,0,1,1,2,2,3,3,4,4,5,5,6,6,7,7,8,8,9,9,10,10,11,11,12,12,13,13,14,14,15,15,18,18,19,19,20,20,21,21,22,22,23,23,24,24,25,25,26,26,27,27,28,28,29,29,30,30],"right_children":[2,4,6,8,10,12,14,16,18,20,22,24,26,28,30,32,-1,-1,34,36,38,40,42,44,46,48,50,52,54,56,58,-1,-1,-1,-1,-1,-1,-1,-1,-1,-1,-1,-1,-1,-1,-1,-1,-1,-1,-1,-1,-1,-1,-1,-1,-1,-1,-1,-1],"split_conditions":[1.58E0,7.5E-1,2.46E0,7.84E1,6.4E0,2.12E0,3.16E0,1.14E0,3.4E0,1.33E0,8.55E1,7.99E1,8.44E1,7.1E0,5E0,6.7E0,2.4970777E-3,-2.176751E-3,3E-2,2.2E1,1E0,2.16E1,1.79E0,3.3E0,4.05E0,5.3E0,3.81E1,3.62E1,2.5685E4,5.2E0,3.8E0,1.976176E-2,2.6090564E-2,2.2934023E-2,1.567757E-2,1.1514835E-2,6.0594594E-3,1.2309152E-2,1.9357122E-3,1.24315955E-2,1.9504432E-2,5.6224153E-3,1.8898945E-2,-8.344569E-3,5.3854156E-3,1.4341281E-3,-3.2362847E-3,-5.4227477E-3,1.154199E-3,-4.6137446E-3,-9.774214E-3,-8.499928E-3,-4.8292745E-3,9.314149E-4,-5.175838E-3,-1.1263783E-2,-9.516625E-3,-1.03762E-2,-3.6054192E-4],"split_indices":[11,11,11,5,10,11,11,12,10,11,5,5,5,10,6,10,0,0,12,0,3,0,13,10,4,10,7,7,2,10,10,0,0,0,0,0,0,0,0,0,0,0,0,0,0,0,0,0,0,0,0,0,0,0,0,0,0,0,0],"split_type":[0,0,0,0,0,0,0,0,0,0,0,0,0,0,0,0,0,0,0,0,0,0,0,0,0,0,0,0,0,0,0,0,0,0,0,0,0,0,0,0,0,0,0,0,0,0,0,0,0,0,0,0,0,0,0,0,0,0,0],"sum_hessian":[1.4338639E3,4.044457E2,1.0294182E3,1.4041599E2,2.6402972E2,4.0299622E2,6.26422E2,6.677019E1,7.364579E1,1.4009871E2,1.2393103E2,2.4584776E2,1.5714845E2,3.014035E2,3.2501846E2,6.565891E1,1.1112757E0,1.0995862E0,7.25462E1,8.6644714E1,5.3453995E1,8.9726875E1,3.420415E1,1.1090484E2,1.3494293E2,9.99156E1,5.723284E1,2.5741394E2,4.3989555E1,3.1261688E2,1.2401599E1,3.493158E1,3.0727333E1,1.5209413E1,5.7336792E1,5.5810524E1,3.0834187E1,7.234376E0,4.621962E1,5.4479237E1,3.5247643E1,3.2312527E1,1.8916235E0,6.431018E0,1.04473816E2,7.4468895E1,6.0474033E1,3.838327E1,6.1532333E1,4.0599495E1,1.6633348E1,1.783754E2,7.903856E1,1.9987259E1,2.4002296E1,1.8718709E2,1.2542979E2,4.5016403E0,7.8999586E0],"tree_param":{"num_deleted":"0","num_feature":"17","num_nodes":"59","size_leaf_vector":"1"}},{"base_weights":[6.4702163E-4,1.190808E0,-5.947495E-1,1.9476576E0,8.5234904E-1,-1.01462744E-1,-8.5702163E-1,2.2282197E0,1.6700995E0,1.1884209E0,5.295472E-1,-6.139836E-1,3.2988448E-2,-6.237316E-1,-1.0027307E0,2.2772493E0,-4.8472066E-5,1.585505E-1,1.7331467E0,1.3456566E0,7.1757853E-1,8.9134014E-1,1.8555158E-1,-6.6841775E-1,5.6728512E-2,2.1028984E-1,-3.0552182E-1,-7.0880556E-1,-2.7759588E-1,-1.0222762E0,-4.1817403E-1,1.9612204E-2,2.5582803E-2,1.1578085E-2,-5.8432207E-3,8.674946E-3,1.823697E-2,1.0205609E-2,1.7492458E-2,2.3550044E-3,1.1086353E-2,-3.854538E-3,9.893098E-3,7.279532E-4,1.2134213E-2,-2.36491E-3,-7.7787754E-3,7.538279E-3,-6.470507E-3,1.6078361E-3,1.3220299E-2,-1.1029772E-3,-7.8257285E-3,-7.613728E-3,3.4192394E-4,3.2019021E-3,-4.939218E-3,-4.288152E-3,-1.0335548E-2,-1.0342231E-2,-2.3238044E-4],"categories":[],"categories_nodes":[],"categories_segments":[],"categories_sizes":[],"default_left":[0,0,0,0,0,0,0,0,0,0,0,0,0,0,0,0,0,0,0,0,0,0,0,0,0,0,0,0,0,0,0,0,0,0,0,0,0,0,0,0,0,0,0,0,0,0,0,0,0,0,0,0,0,0,0,0,0,0,0,0,0],"id":14,"left_children":[1,3,5,7,9,11,13,15,17,19,21,23,25,27,29,31,-1,33,35,37,39,41,43,45,47,49,51,53,55,57,59,-1,-1,-1,-1,-1,-1,-1,-1,-1,-1,-1,-1,-1,-1,-1,-1,-1,-1,-1,-1,-1,-1,-1,-1,-1,-1,-1,-1,-1,-1],"loss_changes":[1.01688586E3,1.20916626E2,1.2366269E2,7.732544E0,3.543376E1,2.2978226E1,2.059787E1,7.692047E0,7.151947E0,1.1032349E1,2.1161781E1,2.5675907E0,1.5961649E1,6.949547E0,3.9446716E0,1.0796509E0,0E0,3.8099215E0,4.274109E0,1.4005066E1,7.7913036E0,1.0795914E1,1.0238896E1,2.849659E0,3.4917102E0,9.387262E0,8.43098E0,7.609421E0,6.562295E0,2.0306702E0,3.4000046E0,0E0,0E0,0E0,0E0,0E0,0E0,0E0,0E0,0E0,0E0,0E0,0E0,0E0,0E0,0E0,0E0,0E0,0E0,0E0,0E0,0E0,0E0,0E0,0E0,0E0,0E0,0E0,0E0,0E0,0E0],"parents":[2147483647,0,0,1,1,2,2,3,3,4,4,5,5,6,6,7,7,8,8,9,9,10,10,11,11,12,12,13,13,14,14,15,15,17,17,18,18,19,19,20,20,21,21,22,22,23,23,24,24,25,25,26,26,27,27,28,28,29,29,30,30],"right_children":[2,4,6,8,10,12,14,16,18,20,22,24,26,28,30,32,-1,34,36,38,40,42,44,46,48,50,52,54,56,58,60,-1,-1,-1,-1,-1,-1,-1,-1,-1,-1,-1,-1,-1,-1,-1,-1,-1,-1,-1,-1,-1,-1,-1,-1,-1,-1,-1,-1,-1,-1],"split_conditions":[1.74E0,7.7E-1,2.46E0,7.84E1,1.33E0,4.5E0,3E0,1.14E0,3.9E0,8.53E1,7.99E1,2.42E1,8.43E1,6.8E0,5E0,6.7E0,-4.8472066E-5,2.59E1,1.42E1,3.31E1,2E0,1.78E1,8.4E0,1.93E1,2.12E0,8.8E0,2.35E0,4.88E1,7.86E1,6.68E1,3.8E0,1.9612204E-2,2.5582803E-2,1.1578085E-2,-5.8432207E-3,8.674946E-3,1.823697E-2,1.0205609E-2,1.7492458E-2,2.3550044E-3,1.1086353E-2,-3.854538E-3,9.893098E-3,7.279532E-4,1.2134213E-2,-2.36491E-3,-7.7787754E-3,7.538279E-3,-6.470507E-3,1.6078361E-3,1.3220299E-2,-1.1029772E-3,-7.8257285E-3,-7.613728E-3,3.4192394E-4,3.2019021E-3,-4.939218E-3,-4.288152E-3,-1.0335548E-2,-1.0342231E-2,-2.3238044E-4],"split_indices":[11,11,11,5,11,10,11,12,10,5,5,0,5,10,6,10,0,7,7,7,14,0,10,0,11,10,13,7,5,5,10,0,0,0,0,0,0,0,0,0,0,0,0,0,0,0,0,0,0,0,0,0,0,0,0,0,0,0,0,0,0],"split_type":[0,0,0,0,0,0,0,0,0,0,0,0,0,0,0,0,0,0,0,0,0,0,0,0,0,0,0,0,0,0,0,0,0,0,0,0,0,0,0,0,0,0,0,0,0,0,0,0,0,0,0,0,0,0,0,0,0,0,0,0,0],"sum_hessian":[1.4330278E3,4.7751157E2,9.555163E2,1.4608568E2,3.314259E2,3.3216342E2,6.2335284E2,6.915463E1,7.6931046E1,1.6106165E2,1.7036426E2,6.828771E1,2.6387573E2,2.4168297E2,3.816699E2,6.764952E1,1.5051082E0,3.221067E0,7.370998E1,1.1934793E2,4.171371E1,8.225865E1,8.81056E1,6.3164757E1,5.122952E0,1.7342155E2,9.045417E1,1.9315997E2,4.8522984E1,3.6859656E2,1.307332E1,3.5597565E1,3.2051956E1,1.1353376E0,2.0857294E0,7.982112E0,6.572786E1,6.805642E1,5.1291508E1,1.9400196E1,2.2313515E1,5.6528807E0,7.6605774E1,8.036091E1,7.744688E0,1.3409925E1,4.975483E1,2.5379632E0,2.5849886E0,1.6712408E2,6.297477E0,6.506057E1,2.5393597E1,1.8037376E2,1.2786217E1,1.2765953E1,3.575703E1,7.602198E0,3.6099435E2,4.474683E0,8.598637E0],"tree_param":{"num_deleted":"0","num_feature":"17","num_nodes":"61","size_leaf_vector":"1"}},{"base_weights":[6.860439E-4,1.1732367E0,-5.90869E-1,1.6147783E0,6.172151E-1,-1.0052165E-1,-8.527097E-1,2.0731072E0,1.3361732E0,8.7668324E-1,2.7695814E-1,-6.0998577E-1,3.2673568E-2,-6.598778E-1,-1.0296544E0,2.3447864E0,1.754274E0,5.5131406E-1,1.4598335E0,4.9955785E-1,1.1744789E0,4.545579E-2,9.1416866E-1,-6.6426116E-1,5.6318257E-2,2.0805265E-1,-3.0306444E-1,-7.310103E-1,-2.3852082E-1,-1.0515326E0,-4.445091E-1,2.3796968E-2,7.2342968E-3,1.0529705E-2,1.915963E-2,8.026719E-3,-6.6748806E-3,1.620183E-2,9.567424E-3,1.8537786E-2,3.902386E-3,8.830213E-3,1.6098743E-2,-2.7129059E-3,3.113256E-3,2.947569E-5,1.2528612E-2,-2.3457098E-3,-7.7347546E-3,7.462994E-3,-6.4406875E-3,1.5905247E-3,1.3030398E-2,-1.0927641E-3,-7.7831554E-3,-8.415953E-3,-4.747377E-3,-3.4443885E-3,5.9089214E-3,-1.1189925E-2,-9.428307E-3,-1.030854E-2,-3.5537942E-4],"categories":[],"categories_nodes":[],"categories_segments":[],"categories_sizes":[],"default_left":[0,0,0,0,0,0,0,0,0,0,0,0,0,0,0,0,0,0,0,0,0,0,0,0,0,0,0,0,0,0,0,0,0,0,0,0,0,0,0,0,0,0,0,0,0,0,0,0,0,0,0,0,0,0,0,0,0,0,0,0,0,0,0],"id":15,"left_children":[1,3,5,7,9,11,13,15,17,19,21,23,25,27,29,31,33,35,37,39,41,43,45,47,49,51,53,55,57,59,61,-1,-1,-1,-1,-1,-1,-1,-1,-1,-1,-1,-1,-1,-1,-1,-1,-1,-1,-1,-1,-1,-1,-1,-1,-1,-1,-1,-1,-1,-1,-1,-1],"loss_changes":[9.9478973E2,1.17073E2,1.22306244E2,3.1379822E1,1.8693153E1,2.2614597E1,2.0519379E1,4.4875183E0,1.5611542E1,1.3027847E1,1.3862916E1,2.5349197E0,1.5661224E1,8.819809E0,3.6575012E0,1.144867E0,3.612915E0,8.081085E0,1.0188599E1,7.4528522E0,7.0804214E0,5.9954987E0,7.732353E0,2.819027E0,3.4399362E0,9.16102E0,8.323928E0,6.8627777E0,4.141552E0,1.2172241E0,3.163542E0,0E0,0E0,0E0,0E0,0E0,0E0,0E0,0E0,0E0,0E0,0E0,0E0,0E0,0E0,0E0,0E0,0E0,0E0,0E0,0E0,0E0,0E0,0E0,0E0,0E0,0E0,0E0,0E0,0E0,0E0,0E0,0E0],"parents":[2147483647,0,0,1,1,2,2,3,3,4,4,5,5,6,6,7,7,8,8,9,9,10,10,11,11,12,12,13,13,14,14,15,15,16,16,17,17,18,18,19,19,20,20,21,21,22,22,23,23,24,24,25,25,26,26,27,27,28,28,29,29,30,30],"right_children":[2,4,6,8,10,12,14,16,18,20,22,24,26,28,30,32,34,36,38,40,42,44,46,48,50,52,54,56,58,60,62,-1,-1,-1,-1,-1,-1,-1,-1,-1,-1,-1,-1,-1,-1,-1,-1,-1,-1,-1,-1,-1,-1,-1,-1,-1,-1,-1,-1,-1,-1,-1,-1],"split_conditions":[1.74E0,1.21E0,2.46E0,5.2E-1,8.15E1,4.5E0,3.16E0,7.85E1,4.6E0,5.9E0,3E0,2.42E1,8.43E1,7.1E0,5E0,7.7895E4,8.03E1,5.8051E4,8.52E1,6.36E1,1E0,3.02E1,5.4E0,1.93E1,2.12E0,8.8E0,2.35E0,3.62E1,4E0,5.2E0,3.8E0,2.3796968E-2,7.2342968E-3,1.0529705E-2,1.915963E-2,8.026719E-3,-6.6748806E-3,1.620183E-2,9.567424E-3,1.8537786E-2,3.902386E-3,8.830213E-3,1.6098743E-2,-2.7129059E-3,3.113256E-3,2.947569E-5,1.2528612E-2,-2.3457098E-3,-7.7347546E-3,7.462994E-3,-6.4406875E-3,1.5905247E-3,1.3030398E-2,-1.0927641E-3,-7.7831554E-3,-8.415953E-3,-4.747377E-3,-3.4443885E-3,5.9089214E-3,-1.1189925E-2,-9.428307E-3,-1.030854E-2,-3.5537942E-4],"split_indices":[11,11,11,11,5,10,11,5,10,10,6,0,5,10,6,2,5,2,5,5,8,7,10,0,11,10,13,7,6,10,10,0,0,0,0,0,0,0,0,0,0,0,0,0,0,0,0,0,0,0,0,0,0,0,0,0,0,0,0,0,0,0,0],"split_type":[0,0,0,0,0,0,0,0,0,0,0,0,0,0,0,0,0,0,0,0,0,0,0,0,0,0,0,0,0,0,0,0,0,0,0,0,0,0,0,0,0,0,0,0,0,0,0,0,0,0,0,0,0,0,0,0,0,0,0,0,0,0,0],"sum_hessian":[1.4321835E3,4.799223E2,9.522611E2,2.6643768E2,2.1348462E2,3.3196896E2,6.202922E2,9.829426E1,1.6814343E2,1.2022707E2,9.325754E1,6.806077E1,2.6390817E2,2.990838E2,3.2120837E2,4.9640816E1,4.865344E1,2.3629261E1,1.4451418E2,5.4229237E1,6.599783E1,6.919128E1,2.4066265E1,6.2937134E1,5.123631E0,1.7360345E2,9.030473E1,2.5525699E2,4.382681E1,3.088631E2,1.2345288E1,4.813664E1,1.5041769E0,1.0523141E1,3.8130295E1,1.9872343E1,3.756918E0,1.0790221E2,3.6611965E1,2.8587122E0,5.1370525E1,4.1347527E1,2.4650307E1,3.1565294E1,3.7625984E1,6.7946334E0,1.7271631E1,1.3392764E1,4.954437E1,2.547967E0,2.575664E0,1.6726373E2,6.339721E0,6.502154E1,2.5283197E1,1.7671718E2,7.853981E1,3.9382313E1,4.444496E0,1.8485126E2,1.24011826E2,4.4478164E0,7.8974724E0],"tree_param":{"num_deleted":"0","num_feature":"17","num_nodes":"63","size_leaf_vector":"1"}},{"base_weights":[7.2696724E-4,1.1561143E0,-5.8701897E-1,1.8830395E0,8.2886326E-1,-9.95898E-2,-8.484297E-1,2.1515899E0,1.6168087E0,1.1532116E0,5.1574504E-1,-6.060118E-1,3.236161E-2,-6.154758E-1,-9.9454135E-1,2.1988604E0,-1.385915E-4,1.4997458E-1,1.6775321E0,1.3040472E0,6.9920737E-1,8.6681837E-1,1.800509E-1,-6.6012716E-1,5.59056E-2,3.7882975E-1,-1.3497278E-1,-7.002275E-1,-2.7228764E-1,-1.0141351E0,-4.1294637E-1,2.2228705E-2,2.8903757E-3,1.1385246E-2,-5.859211E-3,8.383448E-3,1.7651424E-2,9.872358E-3,1.6965738E-2,2.2612193E-3,1.0816118E-2,-3.8856668E-3,9.626324E-3,6.869833E-4,1.1903909E-2,-2.3266487E-3,-7.690964E-3,7.3886975E-3,-6.4110244E-3,6.963608E-4,8.036087E-3,1.0320918E-3,-3.566519E-3,-7.528312E-3,3.8359134E-4,3.2112442E-3,-4.8799035E-3,-4.197543E-3,-1.0254945E-2,-1.0275131E-2,-2.2725597E-4],"categories":[],"categories_nodes":[],"categories_segments":[],"categories_sizes":[],"default_left":[0,0,0,0,0,0,0,0,0,0,0,0,0,0,0,0,0,0,0,0,0,0,0,0,0,0,0,0,0,0,0,0,0,0,0,0,0,0,0,0,0,0,0,0,0,0,0,0,0,0,0,0,0,0,0,0,0,0,0,0,0],"id":16,"left_children":[1,3,5,7,9,11,13,15,17,19,21,23,25,27,29,31,-1,33,35,37,39,41,43,45,47,49,51,53,55,57,59,-1,-1,-1,-1,-1,-1,-1,-1,-1,-1,-1,-1,-1,-1,-1,-1,-1,-1,-1,-1,-1,-1,-1,-1,-1,-1,-1,-1,-1,-1],"loss_changes":[9.7331604E2,1.1340436E2,1.20966644E2,7.191284E0,3.3431427E1,2.2256615E1,2.0431396E1,7.32605E0,6.782013E0,1.0302399E1,2.0147568E1,2.5025616E0,1.5411258E1,6.816948E0,3.8923645E0,2.556244E0,0E0,3.7495532E0,4.0879364E0,1.3467316E1,7.5335236E0,1.0471657E1,9.968271E0,2.7887173E0,3.3890202E0,1.1311127E1,9.508679E0,7.5109787E0,6.4736943E0,2.0360413E0,3.3381574E0,0E0,0E0,0E0,0E0,0E0,0E0,0E0,0E0,0E0,0E0,0E0,0E0,0E0,0E0,0E0,0E0,0E0,0E0,0E0,0E0,0E0,0E0,0E0,0E0,0E0,0E0,0E0,0E0,0E0,0E0],"parents":[2147483647,0,0,1,1,2,2,3,3,4,4,5,5,6,6,7,7,8,8,9,9,10,10,11,11,12,12,13,13,14,14,15,15,17,17,18,18,19,19,20,20,21,21,22,22,23,23,24,24,25,25,26,26,27,27,28,28,29,29,30,30],"right_children":[2,4,6,8,10,12,14,16,18,20,22,24,26,28,30,32,-1,34,36,38,40,42,44,46,48,50,52,54,56,58,60,-1,-1,-1,-1,-1,-1,-1,-1,-1,-1,-1,-1,-1,-1,-1,-1,-1,-1,-1,-1,-1,-1,-1,-1,-1,-1,-1,-1,-1,-1],"split_conditions":[1.74E0,7.7E-1,2.46E0,7.84E1,1.33E0,4.5E0,3E0,1.14E0,3.9E0,8.53E1,7.99E1,2.42E1,7.78E1,6.8E0,5E0,6.26E0,-1.385915E-4,2.59E1,1.42E1,3.31E1,2E0,1.78E1,8.4E0,1.93E1,2.12E0,3.31E1,2.1E0,4.88E1,7.86E1,6.68E1,3.8E0,2.2228705E-2,2.8903757E-3,1.1385246E-2,-5.859211E-3,8.383448E-3,1.7651424E-2,9.872358E-3,1.6965738E-2,2.2612193E-3,1.0816118E-2,-3.8856668E-3,9.626324E-3,6.869833E-4,1.1903909E-2,-2.3266487E-3,-7.690964E-3,7.3886975E-3,-6.4110244E-3,6.963608E-4,8.036087E-3,1.0320918E-3,-3.566519E-3,-7.528312E-3,3.8359134E-4,3.2112442E-3,-4.8799035E-3,-4.197543E-3,-1.0254945E-2,-1.0275131E-2,-2.2725597E-4],"split_indices":[11,11,11,5,11,10,11,12,10,5,5,0,5,10,6,4,0,7,7,7,14,0,10,0,11,7,11,7,5,5,10,0,0,0,0,0,0,0,0,0,0,0,0,0,0,0,0,0,0,0,0,0,0,0,0,0,0,0,0,0,0],"split_type":[0,0,0,0,0,0,0,0,0,0,0,0,0,0,0,0,0,0,0,0,0,0,0,0,0,0,0,0,0,0,0,0,0,0,0,0,0,0,0,0,0,0,0,0,0,0,0,0,0,0,0,0,0,0,0,0,0,0,0,0,0],"sum_hessian":[1.431299E3,4.8227625E2,9.490227E2,1.4823862E2,3.3403763E2,3.3177417E2,6.1724854E2,7.0272354E1,7.7966255E1,1.6275864E2,1.7127899E2,6.783492E1,2.6393927E2,2.399289E2,3.7731964E2,6.875602E1,1.5163401E0,3.237245E0,7.472901E1,1.20764305E2,4.1994324E1,8.294836E1,8.833064E1,6.271069E1,5.1242366E0,8.554769E1,1.7839157E2,1.9157764E2,4.835125E1,3.6430267E2,1.3016991E1,6.774047E1,1.0155427E0,1.1479895E0,2.0892556E0,8.063244E0,6.6665764E1,6.877254E1,5.199177E1,1.9482803E1,2.251152E1,5.6652374E0,7.728312E1,8.0523865E1,7.8067775E0,1.3375739E1,4.933495E1,2.5578575E0,2.566379E0,5.0183445E1,3.5364243E1,8.625248E1,9.213909E1,1.7882225E2,1.2755389E1,1.2759715E1,3.5591534E1,7.5434422E0,3.5675922E2,4.4210424E0,8.595949E0],"tree_param":{"num_deleted":"0","num_feature":"17","num_nodes":"61","size_leaf_vector":"1"}},{"base_weights":[7.509446E-4,1.13933E0,-5.831847E-1,1.563441E0,6.0153574E-1,-9.866543E-2,-8.4416336E-1,2.003468E0,1.2950509E0,4.2471033E-1,1.0843828E0,-6.020615E-1,3.205416E-2,-6.514907E-1,-1.0216949E0,2.2632427E0,1.6979928E0,5.310007E-1,1.4149809E0,7.887457E-1,9.6399605E-2,6.300905E-1,1.4325995E0,-6.560156E-1,5.5490647E-2,2.0451018E-1,-2.9943684E-1,-7.225135E-1,-2.328051E-1,-1.0436441E0,-4.3918484E-1,2.2967687E-2,7.0104036E-3,1.0181827E-2,1.8545816E-2,7.7830856E-3,-6.716164E-3,1.5690837E-2,9.295758E-3,1.51032E-2,6.7478744E-3,-8.353515E-5,1.0406943E-2,3.8729538E-3,1.8295927E-2,-2.1220967E-3,1.5976941E-2,-2.3077268E-3,-7.6474E-3,7.3153707E-3,-6.381515E-3,1.5601957E-3,1.2834686E-2,-1.0737891E-3,-7.7261343E-3,-8.332824E-3,-4.6663964E-3,1.0230064E-3,-5.0593275E-3,-1.11173615E-2,-9.34096E-3,-1.024199E-2,-3.5030505E-4],"categories":[],"categories_nodes":[],"categories_segments":[],"categories_sizes":[],"default_left":[0,0,0,0,0,0,0,0,0,0,0,0,0,0,0,0,0,0,0,0,0,0,0,0,0,0,0,0,0,0,0,0,0,0,0,0,0,0,0,0,0,0,0,0,0,0,0,0,0,0,0,0,0,0,0,0,0,0,0,0,0,0,0],"id":17,"left_children":[1,3,5,7,9,11,13,15,17,19,21,23,25,27,29,31,33,35,37,39,41,43,45,47,49,51,53,55,57,59,61,-1,-1,-1,-1,-1,-1,-1,-1,-1,-1,-1,-1,-1,-1,-1,-1,-1,-1,-1,-1,-1,-1,-1,-1,-1,-1,-1,-1,-1,-1,-1,-1],"loss_changes":[9.5232294E2,1.0981201E2,1.196384E2,2.9393372E1,1.795752E1,2.1904318E1,2.0378113E1,4.15506E0,1.4924103E1,1.8991634E1,8.142746E0,2.4705276E0,1.5208941E1,8.686867E0,3.6129456E0,1.0852966E0,3.4687042E0,7.901524E0,9.556732E0,5.1903687E0,8.419201E0,7.037074E0,8.915604E0,2.7587223E0,3.3389468E0,8.949816E0,8.194268E0,6.813751E0,4.139676E0,1.2451477E0,3.1062121E0,0E0,0E0,0E0,0E0,0E0,0E0,0E0,0E0,0E0,0E0,0E0,0E0,0E0,0E0,0E0,0E0,0E0,0E0,0E0,0E0,0E0,0E0,0E0,0E0,0E0,0E0,0E0,0E0,0E0,0E0,0E0,0E0],"parents":[2147483647,0,0,1,1,2,2,3,3,4,4,5,5,6,6,7,7,8,8,9,9,10,10,11,11,12,12,13,13,14,14,15,15,16,16,17,17,18,18,19,19,20,20,21,21,22,22,23,23,24,24,25,25,26,26,27,27,28,28,29,29,30,30],"right_children":[2,4,6,8,10,12,14,16,18,20,22,24,26,28,30,32,34,36,38,40,42,44,46,48,50,52,54,56,58,60,62,-1,-1,-1,-1,-1,-1,-1,-1,-1,-1,-1,-1,-1,-1,-1,-1,-1,-1,-1,-1,-1,-1,-1,-1,-1,-1,-1,-1,-1,-1,-1,-1],"split_conditions":[1.74E0,1.21E0,2.46E0,5.2E-1,3E0,4.5E0,3.16E0,7.85E1,4.6E0,7.96E1,6E0,2.42E1,8.43E1,7.1E0,5E0,7.7895E4,8.03E1,5.8051E4,8.52E1,1E0,8.4E0,4.04E1,6.99E1,1.93E1,2.12E0,8.8E0,2.35E0,3.62E1,2.5685E4,5.2E0,3.8E0,2.2967687E-2,7.0104036E-3,1.0181827E-2,1.8545816E-2,7.7830856E-3,-6.716164E-3,1.5690837E-2,9.295758E-3,1.51032E-2,6.7478744E-3,-8.353515E-5,1.0406943E-2,3.8729538E-3,1.8295927E-2,-2.1220967E-3,1.5976941E-2,-2.3077268E-3,-7.6474E-3,7.3153707E-3,-6.381515E-3,1.5601957E-3,1.2834686E-2,-1.0737891E-3,-7.7261343E-3,-8.332824E-3,-4.6663964E-3,1.0230064E-3,-5.0593275E-3,-1.11173615E-2,-9.34096E-3,-1.024199E-2,-3.5030505E-4],"split_indices":[11,11,11,11,6,10,11,5,10,5,10,0,5,10,6,2,5,2,5,3,10,7,5,0,11,10,13,7,2,10,10,0,0,0,0,0,0,0,0,0,0,0,0,0,0,0,0,0,0,0,0,0,0,0,0,0,0,0,0,0,0,0,0],"split_type":[0,0,0,0,0,0,0,0,0,0,0,0,0,0,0,0,0,0,0,0,0,0,0,0,0,0,0,0,0,0,0,0,0,0,0,0,0,0,0,0,0,0,0,0,0,0,0,0,0,0,0,0,0,0,0,0,0,0,0,0,0,0,0],"sum_hessian":[1.4303733E3,4.8457675E2,9.457966E2,2.6985712E2,2.1471967E2,3.315802E2,6.142164E2,9.978853E1,1.7006857E2,1.5853975E2,5.6179905E1,6.761019E1,2.6397E2,2.96787E2,3.1742938E2,5.046468E1,4.932385E1,2.3809637E1,1.4625894E2,7.4514565E1,8.402519E1,2.5596094E1,3.0583813E1,6.2485424E1,5.12477E0,1.7388863E2,9.008136E1,2.5312329E2,4.36637E1,3.0514E2,1.22893915E1,4.894409E1,1.5205903E0,1.0638863E1,3.8684986E1,2.0041164E1,3.7684724E0,1.0932022E2,3.6938713E1,8.491814E0,6.602275E1,7.6527E1,7.49819E0,2.2387457E1,3.2086372E0,2.763742E0,2.782007E1,1.3358847E1,4.9126575E1,2.5676358E0,2.5571342E0,1.675052E2,6.383427E0,6.4946945E1,2.5134418E1,1.7507564E2,7.804765E1,1.9888075E1,2.3775625E1,1.8253362E2,1.22606384E2,4.3943634E0,7.895028E0],"tree_param":{"num_deleted":"0","num_feature":"17","num_nodes":"63","size_leaf_vector":"1"}},{"base_weights":[7.916111E-4,1.1230384E0,-5.793861E-1,1.8222886E0,8.0634654E-1,-9.775133E-2,-8.399348E-1,1.2935761E0,1.9398535E0,1.1196089E0,5.0248724E-1,-5.9813464E-1,3.1748217E-2,-6.474519E-1,-1.0176973E0,1.4394263E0,-1.845058E-1,2.2251735E0,1.667357E0,1.2646477E0,6.8107796E-1,8.437245E-1,1.7450894E-1,-3.436896E-1,-7.5359696E-1,3.7227204E-1,-1.3334496E-1,-7.1832323E-1,-2.3086137E-1,-1.0396832E0,-4.3652177E-1,1.5535908E-2,2.8588015E-3,4.3792436E-3,-7.7426443E-3,2.2755386E-2,8.6212E-3,6.6106543E-3,1.772834E-2,9.556837E-3,1.6467346E-2,2.1658193E-3,1.0553488E-2,-3.8947146E-3,9.372266E-3,6.5265957E-4,1.1577195E-2,-7.041456E-4,-7.851834E-3,-8.297124E-3,5.6536524E-3,6.704402E-4,7.90153E-3,1.0181341E-3,-3.5292772E-3,-5.076839E-3,-8.537366E-3,1.012732E-3,-5.024442E-3,-1.1079895E-2,-9.299176E-3,-1.0209118E-2,-3.4725424E-4],"categories":[],"categories_nodes":[],"categories_segments":[],"categories_sizes":[],"default_left":[0,0,0,0,0,0,0,0,0,0,0,0,0,0,0,0,0,0,0,0,0,0,0,0,0,0,0,0,0,0,0,0,0,0,0,0,0,0,0,0,0,0,0,0,0,0,0,0,0,0,0,0,0,0,0,0,0,0,0,0,0,0,0],"id":18,"left_children":[1,3,5,7,9,11,13,15,17,19,21,23,25,27,29,31,33,35,37,39,41,43,45,47,49,51,53,55,57,59,61,-1,-1,-1,-1,-1,-1,-1,-1,-1,-1,-1,-1,-1,-1,-1,-1,-1,-1,-1,-1,-1,-1,-1,-1,-1,-1,-1,-1,-1,-1,-1,-1],"loss_changes":[9.319914E2,1.0655585E2,1.183284E2,6.8932495E0,3.1567627E1,2.1557379E1,2.0288452E1,6.844841E0,5.755768E0,9.657974E0,1.9232426E1,2.4461403E0,1.4947397E1,8.593491E0,3.5905762E0,3.2290306E0,1.6706263E0,1.9160461E0,5.8612976E0,1.2960129E1,7.2941456E0,1.0120327E1,9.543501E0,3.2957318E0,4.6466293E0,1.1017097E1,9.28966E0,6.7850647E0,4.0745807E0,1.2509155E0,3.078388E0,0E0,0E0,0E0,0E0,0E0,0E0,0E0,0E0,0E0,0E0,0E0,0E0,0E0,0E0,0E0,0E0,0E0,0E0,0E0,0E0,0E0,0E0,0E0,0E0,0E0,0E0,0E0,0E0,0E0,0E0,0E0,0E0],"parents":[2147483647,0,0,1,1,2,2,3,3,4,4,5,5,6,6,7,7,8,8,9,9,10,10,11,11,12,12,13,13,14,14,15,15,16,16,17,17,18,18,19,19,20,20,21,21,22,22,23,23,24,24,25,25,26,26,27,27,28,28,29,29,30,30],"right_children":[2,4,6,8,10,12,14,16,18,20,22,24,26,28,30,32,34,36,38,40,42,44,46,48,50,52,54,56,58,60,62,-1,-1,-1,-1,-1,-1,-1,-1,-1,-1,-1,-1,-1,-1,-1,-1,-1,-1,-1,-1,-1,-1,-1,-1,-1,-1,-1,-1,-1,-1,-1,-1],"split_conditions":[1.74E0,7.7E-1,2.46E0,5.4E0,1.33E0,4.5E0,3.16E0,8.7E-1,7.84E1,8.53E1,7.99E1,2E0,7.78E1,7.1E0,5E0,4.49E1,4.5E0,3E0,1.39E1,3.31E1,2E0,1.78E1,8.4E0,4.21E0,2.42E0,3.31E1,2.1E0,8.06E1,2.5685E4,5.2E0,3.8E0,1.5535908E-2,2.8588015E-3,4.3792436E-3,-7.7426443E-3,2.2755386E-2,8.6212E-3,6.6106543E-3,1.772834E-2,9.556837E-3,1.6467346E-2,2.1658193E-3,1.0553488E-2,-3.8947146E-3,9.372266E-3,6.5265957E-4,1.1577195E-2,-7.041456E-4,-7.851834E-3,-8.297124E-3,5.6536524E-3,6.704402E-4,7.90153E-3,1.0181341E-3,-3.5292772E-3,-5.076839E-3,-8.537366E-3,1.012732E-3,-5.024442E-3,-1.1079895E-2,-9.299176E-3,-1.0209118E-2,-3.4725424E-4],"split_indices":[11,11,11,10,11,10,11,12,5,5,5,15,5,10,6,7,10,16,7,7,14,0,10,4,11,7,11,5,2,10,10,0,0,0,0,0,0,0,0,0,0,0,0,0,0,0,0,0,0,0,0,0,0,0,0,0,0,0,0,0,0,0,0],"split_type":[0,0,0,0,0,0,0,0,0,0,0,0,0,0,0,0,0,0,0,0,0,0,0,0,0,0,0,0,0,0,0,0,0,0,0,0,0,0,0,0,0,0,0,0,0,0,0,0,0,0,0,0,0,0,0,0,0,0,0,0,0,0,0],"sum_hessian":[1.4294055E3,4.8681534E2,9.4259015E2,1.5026927E2,3.3654605E2,3.313856E2,6.112045E2,2.9519098E1,1.20750175E2,1.6438719E2,1.7215886E2,6.738658E1,2.6399902E2,2.9568085E2,3.1552368E2,2.6891705E1,2.6273947E0,5.5486584E1,6.5263596E1,1.22115204E2,4.2271984E1,8.36033E1,8.8555565E1,2.6774895E1,4.0611683E1,8.579074E1,1.7820828E2,2.5207326E2,4.3607594E1,3.0326236E2,1.226134E1,2.4154392E1,2.7373123E0,1.4035461E0,1.2238485E0,5.2863804E1,2.6227784E0,6.881248E0,5.8382347E1,6.94542E1,5.2661E1,1.9566847E1,2.2705137E1,5.6690483E0,7.793425E1,8.065995E1,7.895619E0,1.7254333E1,9.520562E0,3.8746605E1,1.8650786E0,5.024864E1,3.55421E1,8.6311165E1,9.189711E1,1.0049681E2,1.5157645E2,1.989902E1,2.3708574E1,1.8132877E2,1.21933586E2,4.367781E0,7.8935585E0],"tree_param":{"num_deleted":"0","num_feature":"17","num_nodes":"63","size_leaf_vector":"1"}},{"base_weights":[8.1303465E-4,1.1070669E0,-5.756085E-1,1.792702E0,7.956104E-1,-9.6850336E-2,-8.357243E-1,1.2750202E0,1.9075634E0,1.103326E0,4.9639824E-1,-5.942354E-1,3.1446807E-2,-6.434279E-1,-1.0137264E0,1.4181911E0,-1.8365996E-1,2.187024E0,1.6404783E0,1.2454838E0,6.72504E-1,8.320617E-1,1.7276154E-1,-6.4820737E-1,6.015823E-2,1.7264536E-1,-3.6168548E-1,-7.1414524E-1,-2.2893271E-1,-1.0357496E0,-4.3387684E-1,1.5298916E-2,2.835516E-3,4.3487325E-3,-7.7140466E-3,2.2358991E-2,8.539923E-3,6.5375636E-3,1.7434124E-2,9.42369E-3,1.619293E-2,2.1431104E-3,1.040328E-2,-3.8679533E-3,9.239322E-3,6.459981E-4,1.14183575E-2,-2.2441333E-3,-7.5699645E-3,7.2979718E-3,-6.3235154E-3,1.0339298E-2,9.637617E-4,-1.6310167E-3,-8.298223E-3,-8.253304E-3,-4.5796037E-3,-3.3461335E-3,5.921398E-3,-1.1042745E-2,-9.257614E-3,-1.0176506E-2,-3.4422777E-4],"categories":[],"categories_nodes":[],"categories_segments":[],"categories_sizes":[],"default_left":[0,0,0,0,0,0,0,0,0,0,0,0,0,0,0,0,0,0,0,0,0,0,0,0,0,0,0,0,0,0,0,0,0,0,0,0,0,0,0,0,0,0,0,0,0,0,0,0,0,0,0,0,0,0,0,0,0,0,0,0,0,0,0],"id":19,"left_children":[1,3,5,7,9,11,13,15,17,19,21,23,25,27,29,31,33,35,37,39,41,43,45,47,49,51,53,55,57,59,61,-1,-1,-1,-1,-1,-1,-1,-1,-1,-1,-1,-1,-1,-1,-1,-1,-1,-1,-1,-1,-1,-1,-1,-1,-1,-1,-1,-1,-1,-1,-1,-1],"loss_changes":[9.121271E2,1.03211975E2,1.1703024E2,6.621582E0,3.0641068E1,2.1217068E1,2.020047E1,6.664463E0,5.5628967E0,9.340057E0,1.8710808E1,2.4465923E0,1.4774045E1,8.500694E0,3.5684814E0,3.1197777E0,1.6536909E0,1.7983398E0,5.633621E0,1.249881E1,7.092018E0,9.868244E0,9.320549E0,2.7373753E0,3.2943766E0,1.2753815E1,6.4053926E0,6.8009186E0,4.0639644E0,1.2568054E0,3.0508764E0,0E0,0E0,0E0,0E0,0E0,0E0,0E0,0E0,0E0,0E0,0E0,0E0,0E0,0E0,0E0,0E0,0E0,0E0,0E0,0E0,0E0,0E0,0E0,0E0,0E0,0E0,0E0,0E0,0E0,0E0,0E0,0E0],"parents":[2147483647,0,0,1,1,2,2,3,3,4,4,5,5,6,6,7,7,8,8,9,9,10,10,11,11,12,12,13,13,14,14,15,15,16,16,17,17,18,18,19,19,20,20,21,21,22,22,23,23,24,24,25,25,26,26,27,27,28,28,29,29,30,30],"right_children":[2,4,6,8,10,12,14,16,18,20,22,24,26,28,30,32,34,36,38,40,42,44,46,48,50,52,54,56,58,60,62,-1,-1,-1,-1,-1,-1,-1,-1,-1,-1,-1,-1,-1,-1,-1,-1,-1,-1,-1,-1,-1,-1,-1,-1,-1,-1,-1,-1,-1,-1,-1,-1],"split_conditions":[1.74E0,7.7E-1,2.46E0,5.4E0,1.33E0,4.5E0,3.16E0,8.7E-1,7.84E1,8.53E1,7.99E1,2.42E1,8.63E1,7.1E0,5E0,4.49E1,4.5E0,3E0,1.39E1,3.31E1,2E0,1.78E1,8.4E0,1.93E1,2.12E0,1.58E0,2.35E0,3.62E1,4E0,5.2E0,3.8E0,1.5298916E-2,2.835516E-3,4.3487325E-3,-7.7140466E-3,2.2358991E-2,8.539923E-3,6.5375636E-3,1.7434124E-2,9.42369E-3,1.619293E-2,2.1431104E-3,1.040328E-2,-3.8679533E-3,9.239322E-3,6.459981E-4,1.14183575E-2,-2.2441333E-3,-7.5699645E-3,7.2979718E-3,-6.3235154E-3,1.0339298E-2,9.637617E-4,-1.6310167E-3,-8.298223E-3,-8.253304E-3,-4.5796037E-3,-3.3461335E-3,5.921398E-3,-1.1042745E-2,-9.257614E-3,-1.0176506E-2,-3.4422777E-4],"split_indices":[11,11,11,10,11,10,11,12,5,5,5,0,5,10,6,7,10,16,7,7,14,0,10,0,11,13,13,7,6,10,10,0,0,0,0,0,0,0,0,0,0,0,0,0,0,0,0,0,0,0,0,0,0,0,0,0,0,0,0,0,0,0,0],"split_type":[0,0,0,0,0,0,0,0,0,0,0,0,0,0,0,0,0,0,0,0,0,0,0,0,0,0,0,0,0,0,0,0,0,0,0,0,0,0,0,0,0,0,0,0,0,0,0,0,0,0,0,0,0,0,0,0,0,0,0,0,0,0,0],"sum_hessian":[1.4284102E3,4.8900446E2,9.3940576E2,1.5126228E2,3.3774216E2,3.311949E2,6.082109E2,2.9664516E1,1.2159776E2,1.6518022E2,1.7256194E2,6.716735E1,2.6402753E2,2.9458466E2,3.1362625E2,2.7038425E1,2.6260905E0,5.590935E1,6.568841E1,1.2277678E2,4.2403446E1,8.39359E1,8.862604E1,6.2058453E1,5.1088967E0,1.9467009E2,6.935744E1,2.5103284E2,4.355182E1,3.0139282E2,1.22334E1,2.4298037E1,2.7403896E0,1.4062616E0,1.219829E0,5.3278614E1,2.6307397E0,6.8996854E0,5.8788723E1,6.9743835E1,5.3032948E1,1.9586939E1,2.281651E1,5.6581626E0,7.827773E1,8.068695E1,7.9390883E0,1.3302116E1,4.8756336E1,2.5699642E0,2.5389326E0,1.48148E1,1.7985529E2,4.9645992E1,1.9711443E1,1.7350806E2,7.752478E1,3.911037E1,4.4414477E0,1.8012878E2,1.2126405E2,4.341298E0,7.8921022E0],"tree_param":{"num_deleted":"0","num_feature":"17","num_nodes":"63","size_leaf_vector":"1"}},{"base_weights":[8.3715277E-4,1.0914681E0,-5.718513E-1,1.4920844E0,5.787933E-1,-9.596438E-2,-8.315318E-1,1.9089912E0,1.2368677E0,4.05622E-1,1.0504702E0,-5.9035105E-1,3.1130517E-2,-5.9902227E-1,-9.785815E-1,2.1548913E0,1.6196374E0,4.977918E-1,1.3525665E0,7.537217E-1,8.903857E-2,6.077311E-1,1.3890251E0,-3.3658272E-1,-7.4586415E-1,1.9919954E-1,-2.9392594E-1,-6.831581E-1,-2.615226E-1,-9.982893E-1,-4.022188E-1,2.18692E-2,6.6642347E-3,2.086988E-2,1.3503927E-2,7.396524E-3,-6.808837E-3,1.4984223E-2,8.908698E-3,1.4603368E-2,6.4233784E-3,-1.2916324E-4,9.98355E-3,3.6970517E-3,1.7807798E-2,-2.1830949E-3,1.5492927E-2,-6.472359E-4,-7.779062E-3,-8.22211E-3,5.656556E-3,1.5127916E-3,1.2610834E-2,-1.0477493E-3,-7.6350505E-3,-7.3615317E-3,5.3726154E-4,3.2894958E-3,-4.773605E-3,-3.9860783E-3,-1.0098587E-2,-1.014415E-2,-2.0828434E-4],"categories":[],"categories_nodes":[],"categories_segments":[],"categories_sizes":[],"default_left":[0,0,0,0,0,0,0,0,0,0,0,0,0,0,0,0,0,0,0,0,0,0,0,0,0,0,0,0,0,0,0,0,0,0,0,0,0,0,0,0,0,0,0,0,0,0,0,0,0,0,0,0,0,0,0,0,0,0,0,0,0,0,0],"id":20,"left_children":[1,3,5,7,9,11,13,15,17,19,21,23,25,27,29,31,33,35,37,39,41,43,45,47,49,51,53,55,57,59,61,-1,-1,-1,-1,-1,-1,-1,-1,-1,-1,-1,-1,-1,-1,-1,-1,-1,-1,-1,-1,-1,-1,-1,-1,-1,-1,-1,-1,-1,-1,-1,-1],"loss_changes":[8.9277124E2,1.0021454E2,1.1574185E2,2.6965942E1,1.7340355E1,2.0879591E1,2.014096E1,3.8257446E0,1.4188965E1,1.7645533E1,7.816948E0,2.4304008E0,1.4539228E1,6.563751E0,3.798767E0,1.048172E0,3.632187E0,7.6613374E0,8.746002E0,5.076603E0,7.9217772E0,6.829232E0,8.572792E0,3.2657928E0,4.601122E0,8.730359E0,7.979868E0,7.4375076E0,6.402055E0,2.0734558E0,3.2245255E0,0E0,0E0,0E0,0E0,0E0,0E0,0E0,0E0,0E0,0E0,0E0,0E0,0E0,0E0,0E0,0E0,0E0,0E0,0E0,0E0,0E0,0E0,0E0,0E0,0E0,0E0,0E0,0E0,0E0,0E0,0E0,0E0],"parents":[2147483647,0,0,1,1,2,2,3,3,4,4,5,5,6,6,7,7,8,8,9,9,10,10,11,11,12,12,13,13,14,14,15,15,16,16,17,17,18,18,19,19,20,20,21,21,22,22,23,23,24,24,25,25,26,26,27,27,28,28,29,29,30,30],"right_children":[2,4,6,8,10,12,14,16,18,20,22,24,26,28,30,32,34,36,38,40,42,44,46,48,50,52,54,56,58,60,62,-1,-1,-1,-1,-1,-1,-1,-1,-1,-1,-1,-1,-1,-1,-1,-1,-1,-1,-1,-1,-1,-1,-1,-1,-1,-1,-1,-1,-1,-1,-1,-1],"split_conditions":[1.74E0,1.21E0,2.46E0,5.2E-1,3E0,4.5E0,3E0,7.85E1,4.6E0,7.96E1,6E0,2E0,8.43E1,6.8E0,5E0,7.7895E4,5E-2,5.8051E4,8.52E1,1E0,8.4E0,4.04E1,6.99E1,4.21E0,2.42E0,8.8E0,2.35E0,4.88E1,7.86E1,6.68E1,3.8E0,2.18692E-2,6.6642347E-3,2.086988E-2,1.3503927E-2,7.396524E-3,-6.808837E-3,1.4984223E-2,8.908698E-3,1.4603368E-2,6.4233784E-3,-1.2916324E-4,9.98355E-3,3.6970517E-3,1.7807798E-2,-2.1830949E-3,1.5492927E-2,-6.472359E-4,-7.779062E-3,-8.22211E-3,5.656556E-3,1.5127916E-3,1.2610834E-2,-1.0477493E-3,-7.6350505E-3,-7.3615317E-3,5.3726154E-4,3.2894958E-3,-4.773605E-3,-3.9860783E-3,-1.0098587E-2,-1.014415E-2,-2.0828434E-4],"split_indices":[11,11,11,11,6,10,11,5,10,5,10,15,5,10,6,2,12,2,5,3,10,7,5,4,11,10,13,7,5,5,10,0,0,0,0,0,0,0,0,0,0,0,0,0,0,0,0,0,0,0,0,0,0,0,0,0,0,0,0,0,0,0,0],"split_type":[0,0,0,0,0,0,0,0,0,0,0,0,0,0,0,0,0,0,0,0,0,0,0,0,0,0,0,0,0,0,0,0,0,0,0,0,0,0,0,0,0,0,0,0,0,0,0,0,0,0,0,0,0,0,0,0,0,0,0,0,0,0,0],"sum_hessian":[1.4273683E3,4.911375E2,9.3623083E2,2.7462704E2,2.1651047E2,3.3100507E2,6.0522577E2,1.0182004E2,1.7280702E2,1.5972797E2,5.6782494E1,6.694615E1,2.640589E2,2.364435E2,3.6878226E2,5.1557747E1,5.0262287E1,2.4108185E1,1.4869884E2,7.5419525E1,8.430844E1,2.5816498E1,3.0965996E1,2.6639622E1,4.0306534E1,1.7431651E2,8.97424E1,1.8844225E2,4.8001247E1,3.5588138E2,1.2900867E1,5.001235E1,1.5454017E0,1.5904398E1,3.435789E1,2.0312578E1,3.795607E0,1.1129413E2,3.7404713E1,8.620504E0,6.679903E1,7.669499E1,7.613444E0,2.2554983E1,3.2615159E0,2.774836E0,2.819116E1,1.7194387E1,9.445235E0,3.8441826E1,1.8647068E0,1.6788281E2,6.4337015E0,6.484524E1,2.4897165E1,1.7580008E2,1.2642159E1,1.2708977E1,3.529227E1,7.406949E0,3.4847446E2,4.314915E0,8.585953E0],"tree_param":{"num_deleted":"0","num_feature":"17","num_nodes":"63","size_leaf_vector":"1"}},{"base_weights":[8.882173E-4,1.0763054E0,-5.681079E-1,1.7375854E0,7.7439594E-1,-9.508119E-2,-8.273505E-1,1.236711E0,1.848508E0,1.071985E0,4.8378122E-1,-5.8649474E-1,3.0833762E-2,-6.3520336E-1,-1.0059766E0,1.3761464E0,-1.8956687E-1,2.117661E0,1.5910294E0,1.2089117E0,6.553466E-1,8.1028813E-1,1.6745222E-1,-6.404826E-1,6.4729266E-2,3.6390367E-1,-1.3142318E-1,-7.058073E-1,-2.2337487E-1,-1.0280751E0,-4.2870268E-1,1.4849376E-2,2.6980485E-3,4.2809076E-3,-7.742639E-3,2.1647878E-2,8.288725E-3,6.3042194E-3,1.69107E-2,9.128919E-3,1.5734114E-2,2.0525309E-3,1.0156184E-2,-3.8753613E-3,9.000141E-3,6.132571E-4,1.1111486E-2,-2.1815037E-3,-7.493348E-3,7.28004E-3,-6.266222E-3,6.2844716E-4,7.74734E-3,9.986457E-4,-3.4830093E-3,-4.9427524E-3,-8.421589E-3,1.0629698E-3,-4.942011E-3,-1.0972642E-2,-9.172039E-3,-1.0112045E-2,-3.3941385E-4],"categories":[],"categories_nodes":[],"categories_segments":[],"categories_sizes":[],"default_left":[0,0,0,0,0,0,0,0,0,0,0,0,0,0,0,0,0,0,0,0,0,0,0,0,0,0,0,0,0,0,0,0,0,0,0,0,0,0,0,0,0,0,0,0,0,0,0,0,0,0,0,0,0,0,0,0,0,0,0,0,0,0,0],"id":21,"left_children":[1,3,5,7,9,11,13,15,17,19,21,23,25,27,29,31,33,35,37,39,41,43,45,47,49,51,53,55,57,59,61,-1,-1,-1,-1,-1,-1,-1,-1,-1,-1,-1,-1,-1,-1,-1,-1,-1,-1,-1,-1,-1,-1,-1,-1,-1,-1,-1,-1,-1,-1,-1,-1],"loss_changes":[8.739728E2,9.732141E1,1.1446481E2,6.2757263E0,2.8981308E1,2.054952E1,2.0066132E1,6.4183006E0,5.2339783E0,8.775238E0,1.7876617E1,2.422697E0,1.4373786E1,8.371712E0,3.5255127E0,3.0085983E0,1.6446489E0,1.7086487E0,5.417633E0,1.2055374E1,6.8723946E0,9.544125E0,8.929375E0,2.7160244E0,3.2502844E0,1.0724283E1,9.012843E0,6.792877E0,4.016138E0,1.2852173E0,2.9960456E0,0E0,0E0,0E0,0E0,0E0,0E0,0E0,0E0,0E0,0E0,0E0,0E0,0E0,0E0,0E0,0E0,0E0,0E0,0E0,0E0,0E0,0E0,0E0,0E0,0E0,0E0,0E0,0E0,0E0,0E0,0E0,0E0],"parents":[2147483647,0,0,1,1,2,2,3,3,4,4,5,5,6,6,7,7,8,8,9,9,10,10,11,11,12,12,13,13,14,14,15,15,16,16,17,17,18,18,19,19,20,20,21,21,22,22,23,23,24,24,25,25,26,26,27,27,28,28,29,29,30,30],"right_children":[2,4,6,8,10,12,14,16,18,20,22,24,26,28,30,32,34,36,38,40,42,44,46,48,50,52,54,56,58,60,62,-1,-1,-1,-1,-1,-1,-1,-1,-1,-1,-1,-1,-1,-1,-1,-1,-1,-1,-1,-1,-1,-1,-1,-1,-1,-1,-1,-1,-1,-1,-1,-1],"split_conditions":[1.74E0,7.7E-1,2.46E0,5.4E0,1.33E0,4.5E0,3.16E0,8.7E-1,7.84E1,8.53E1,7.99E1,2.42E1,7.78E1,7.1E0,5E0,4.49E1,4.5E0,3E0,1.39E1,3.31E1,2E0,1.78E1,8.4E0,1.93E1,2.12E0,3.31E1,2.1E0,8.06E1,2.5685E4,5.2E0,3.8E0,1.4849376E-2,2.6980485E-3,4.2809076E-3,-7.742639E-3,2.1647878E-2,8.288725E-3,6.3042194E-3,1.69107E-2,9.128919E-3,1.5734114E-2,2.0525309E-3,1.0156184E-2,-3.8753613E-3,9.000141E-3,6.132571E-4,1.1111486E-2,-2.1815037E-3,-7.493348E-3,7.28004E-3,-6.266222E-3,6.2844716E-4,7.74734E-3,9.986457E-4,-3.4830093E-3,-4.9427524E-3,-8.421589E-3,1.0629698E-3,-4.942011E-3,-1.0972642E-2,-9.172039E-3,-1.0112045E-2,-3.3941385E-4],"split_indices":[11,11,11,10,11,10,11,12,5,5,5,0,5,10,6,7,10,16,7,7,14,0,10,0,11,7,11,5,2,10,10,0,0,0,0,0,0,0,0,0,0,0,0,0,0,0,0,0,0,0,0,0,0,0,0,0,0,0,0,0,0,0,0],"split_type":[0,0,0,0,0,0,0,0,0,0,0,0,0,0,0,0,0,0,0,0,0,0,0,0,0,0,0,0,0,0,0,0,0,0,0,0,0,0,0,0,0,0,0,0,0,0,0,0,0,0,0,0,0,0,0,0,0,0,0,0,0,0,0],"sum_hessian":[1.426275E3,4.932079E2,9.3306714E2,1.5310432E2,3.4010358E2,3.308142E2,6.022529E2,2.9961493E1,1.2314283E2,1.6670708E2,1.733965E2,6.672926E1,2.6408496E2,2.9234015E2,3.0991278E2,2.7325274E1,2.6362195E0,5.667427E1,6.646856E1,1.2404015E2,4.266692E1,8.455716E1,8.883934E1,6.1636E1,5.093261E0,8.6100655E1,1.779843E2,2.4894681E2,4.3393337E1,2.9773438E2,1.2178419E1,2.4567265E1,2.7580085E0,1.4122257E0,1.2239939E0,5.4019245E1,2.6550233E0,6.9580317E0,5.9510525E1,7.038398E1,5.365617E1,1.9666704E1,2.3000216E1,5.661269E0,7.88959E1,8.08159E1,8.023436E0,1.3246283E1,4.8389717E1,2.5723557E0,2.520905E0,5.035395E1,3.5746708E1,8.639185E1,9.159244E1,9.938641E1,1.495604E2,1.9844498E1,2.354884E1,1.7785E2,1.1988436E2,4.288635E0,7.889785E0],"tree_param":{"num_deleted":"0","num_feature":"17","num_nodes":"63","size_leaf_vector":"1"}},{"base_weights":[9.085428E-4,1.0614034E0,-5.643957E-1,1.4365997E0,5.497248E-1,-9.419867E-2,-8.2320255E-1,1.8504812E0,1.1928586E0,4.382578E-1,1.3058825E0,-5.82652E-1,3.0541446E-2,-6.312398E-1,-1.0020806E0,2.0878012E0,1.5711155E0,4.7126293E-1,1.3067982E0,7.465317E-1,1.6629085E-1,3.280624E-1,1.5593218E0,-3.295695E-1,-7.382134E-1,1.6832179E-1,-3.5551834E-1,-7.0168746E-1,-2.215025E-1,-1.0242181E0,-4.2611122E-1,2.1187143E-2,6.4753466E-3,2.0288017E-2,1.30819315E-2,6.8712737E-3,-5.4391194E-3,1.4541573E-2,8.399905E-3,3.9013245E-3,9.966082E-3,7.548379E-4,1.4807574E-2,-2.28299E-3,1.1168021E-2,1.7968757E-2,1.6469902E-3,-5.9137185E-4,-7.707083E-3,-8.147913E-3,5.6588054E-3,1.0137657E-2,9.308346E-4,-1.5992562E-3,-8.203977E-3,-8.135701E-3,-4.4482667E-3,-3.268108E-3,5.9092436E-3,-1.0936376E-2,-9.131129E-3,-1.008019E-2,-3.364551E-4],"categories":[],"categories_nodes":[],"categories_segments":[],"categories_sizes":[],"default_left":[0,0,0,0,0,0,0,0,0,0,0,0,0,0,0,0,0,0,0,0,0,0,0,0,0,0,0,0,0,0,0,0,0,0,0,0,0,0,0,0,0,0,0,0,0,0,0,0,0,0,0,0,0,0,0,0,0,0,0,0,0,0,0],"id":22,"left_children":[1,3,5,7,9,11,13,15,17,19,21,23,25,27,29,31,33,35,37,39,41,43,45,47,49,51,53,55,57,59,61,-1,-1,-1,-1,-1,-1,-1,-1,-1,-1,-1,-1,-1,-1,-1,-1,-1,-1,-1,-1,-1,-1,-1,-1,-1,-1,-1,-1,-1,-1,-1,-1],"loss_changes":[8.555859E2,9.447748E1,1.1320697E2,2.6612122E1,1.7258892E1,2.0223373E1,1.9980682E1,3.619629E0,1.4398071E1,1.5460133E1,6.0987625E0,2.414589E0,1.4161459E1,8.280792E0,3.5039978E0,9.9798584E-1,3.5843658E0,6.173516E0,9.588196E0,7.350815E0,1.18295555E1,3.220087E0,6.6338577E0,3.235863E0,4.5559616E0,1.23769655E1,6.2382956E0,6.7917557E0,3.986571E0,1.2912598E0,2.9694538E0,0E0,0E0,0E0,0E0,0E0,0E0,0E0,0E0,0E0,0E0,0E0,0E0,0E0,0E0,0E0,0E0,0E0,0E0,0E0,0E0,0E0,0E0,0E0,0E0,0E0,0E0,0E0,0E0,0E0,0E0,0E0,0E0],"parents":[2147483647,0,0,1,1,2,2,3,3,4,4,5,5,6,6,7,7,8,8,9,9,10,10,11,11,12,12,13,13,14,14,15,15,16,16,17,17,18,18,19,19,20,20,21,21,22,22,23,23,24,24,25,25,26,26,27,27,28,28,29,29,30,30],"right_children":[2,4,6,8,10,12,14,16,18,20,22,24,26,28,30,32,34,36,38,40,42,44,46,48,50,52,54,56,58,60,62,-1,-1,-1,-1,-1,-1,-1,-1,-1,-1,-1,-1,-1,-1,-1,-1,-1,-1,-1,-1,-1,-1,-1,-1,-1,-1,-1,-1,-1,-1,-1,-1],"split_conditions":[1.74E0,1.23E0,2.46E0,5.2E-1,4E0,4.5E0,3.16E0,7.85E1,4.6E0,7.96E1,5.1E0,2E0,8.63E1,7.1E0,5E0,7.7895E4,5E-2,5.8051E4,8.52E1,5.8E0,8.8E0,1E0,5.17E0,4.21E0,2.42E0,1.58E0,2.35E0,3.62E1,4E0,5.2E0,3.8E0,2.1187143E-2,6.4753466E-3,2.0288017E-2,1.30819315E-2,6.8712737E-3,-5.4391194E-3,1.4541573E-2,8.399905E-3,3.9013245E-3,9.966082E-3,7.548379E-4,1.4807574E-2,-2.28299E-3,1.1168021E-2,1.7968757E-2,1.6469902E-3,-5.9137185E-4,-7.707083E-3,-8.147913E-3,5.6588054E-3,1.0137657E-2,9.308346E-4,-1.5992562E-3,-8.203977E-3,-8.135701E-3,-4.4482667E-3,-3.268108E-3,5.9092436E-3,-1.0936376E-2,-9.131129E-3,-1.008019E-2,-3.364551E-4],"split_indices":[11,11,11,11,6,10,11,5,10,5,10,15,5,10,6,2,12,2,5,10,10,9,4,4,11,13,13,7,6,10,10,0,0,0,0,0,0,0,0,0,0,0,0,0,0,0,0,0,0,0,0,0,0,0,0,0,0,0,0,0,0,0,0],"split_type":[0,0,0,0,0,0,0,0,0,0,0,0,0,0,0,0,0,0,0,0,0,0,0,0,0,0,0,0,0,0,0,0,0,0,0,0,0,0,0,0,0,0,0,0,0,0,0,0,0,0,0,0,0,0,0,0,0,0,0,0,0,0,0],"sum_hessian":[1.425161E3,4.9523553E2,9.299255E2,2.8468106E2,2.1055446E2,3.306211E2,5.993044E2,1.0307091E2,1.8161015E2,1.8488039E2,2.5674074E1,6.6510506E1,2.641106E2,2.9126385E2,3.0804053E2,5.2229122E1,5.084178E1,2.546606E1,1.5614409E2,8.5838135E1,9.904225E1,5.7569695E0,1.9917105E1,2.6506207E1,4.0004295E1,1.9505994E2,6.9050674E1,2.4792467E2,4.3339172E1,2.958897E2,1.2150818E1,5.0670498E1,1.558623E0,1.6099667E1,3.4742115E1,2.126703E1,4.1990294E0,1.1707229E2,3.9071808E1,3.6450443E1,4.938769E1,9.363136E1,5.410893E0,3.792422E0,1.9645473E0,1.6771832E1,3.1452723E0,1.7135593E1,9.370613E0,3.813988E1,1.864413E0,1.4920955E1,1.8013898E2,4.9547947E1,1.9502724E1,1.7119064E2,7.673404E1,3.8895233E1,4.443938E0,1.7666466E2,1.1922507E2,4.262458E0,7.88836E0],"tree_param":{"num_deleted":"0","num_feature":"17","num_nodes":"63","size_leaf_vector":"1"}},{"base_weights":[9.450935E-4,9.074122E-1,-6.47305E-1,1.4152172E0,4.317028E-1,-3.272159E-1,-9.148224E-1,1.8218724E0,1.1754888E0,1.6159311E-1,6.5902257E-1,-1.6167432E-1,-5.845197E-1,-7.33326E-1,-9.982088E-1,2.0546656E0,1.5476991E0,4.6566176E-1,1.2872219E0,4.2853937E-1,-2.9183543E-1,9.4144684E-1,2.9496074E-1,-4.825233E-1,-4.9893416E-2,-7.036377E-1,-2.1676211E-1,-8.6911935E-1,-3.4448653E-1,-1.0203857E0,-4.2353734E-1,2.0938214E-2,8.016324E-3,1.997383E-2,1.289194E-2,6.7862966E-3,-5.4057674E-3,1.4316418E-2,8.288127E-3,1.0277197E-3,6.924737E-3,4.5037703E-3,-5.179901E-3,6.786701E-3,1.3398752E-2,5.8611674E-4,8.597881E-3,-5.6231767E-3,7.2819535E-3,4.303992E-3,-1.7250677E-3,-7.318688E-3,7.969403E-3,8.636452E-3,-3.7878638E-3,-9.359528E-3,-3.893279E-3,-4.329046E-3,9.611693E-3,-1.0900398E-2,-9.090423E-3,-1.0048577E-2,-3.335226E-4],"categories":[],"categories_nodes":[],"categories_segments":[],"categories_sizes":[],"default_left":[0,0,0,0,0,0,0,0,0,0,0,0,0,0,0,0,0,0,0,0,0,0,0,0,0,0,0,0,0,0,0,0,0,0,0,0,0,0,0,0,0,0,0,0,0,0,0,0,0,0,0,0,0,0,0,0,0,0,0,0,0,0,0],"id":23,"left_children":[1,3,5,7,9,11,13,15,17,19,21,23,25,27,29,31,33,35,37,39,41,43,45,47,49,51,53,55,57,59,61,-1,-1,-1,-1,-1,-1,-1,-1,-1,-1,-1,-1,-1,-1,-1,-1,-1,-1,-1,-1,-1,-1,-1,-1,-1,-1,-1,-1,-1,-1,-1,-1],"loss_changes":[8.379432E2,1.4302048E2,7.0894745E1,2.5851746E1,1.8831554E1,1.609459E1,6.113922E0,3.5011292E0,1.3951889E1,1.7346106E1,1.690934E1,8.320229E0,6.3490257E0,7.418602E0,3.4826965E0,9.4932556E-1,3.4837036E0,6.0498047E0,9.270447E0,7.6634884E0,9.18279E0,8.898346E0,9.892466E0,6.205825E0,1.0301238E1,5.313442E0,6.9364247E0,3.0884628E0,4.975E0,1.2973938E0,2.9431536E0,0E0,0E0,0E0,0E0,0E0,0E0,0E0,0E0,0E0,0E0,0E0,0E0,0E0,0E0,0E0,0E0,0E0,0E0,0E0,0E0,0E0,0E0,0E0,0E0,0E0,0E0,0E0,0E0,0E0,0E0,0E0,0E0],"parents":[2147483647,0,0,1,1,2,2,3,3,4,4,5,5,6,6,7,7,8,8,9,9,10,10,11,11,12,12,13,13,14,14,15,15,16,16,17,17,18,18,19,19,20,20,21,21,22,22,23,23,24,24,25,25,26,26,27,27,28,28,29,29,30,30],"right_children":[2,4,6,8,10,12,14,16,18,20,22,24,26,28,30,32,34,36,38,40,42,44,46,48,50,52,54,56,58,60,62,-1,-1,-1,-1,-1,-1,-1,-1,-1,-1,-1,-1,-1,-1,-1,-1,-1,-1,-1,-1,-1,-1,-1,-1,-1,-1,-1,-1,-1,-1,-1,-1],"split_conditions":[1.95E0,1.23E0,2.79E0,5.2E-1,5.8E0,8.41E1,3.16E0,7.85E1,4.6E0,4.05E0,8.15E1,4.5E0,6.8E0,3E0,5E0,7.3099E4,5E-2,5.8051E4,8.52E1,2E0,1.4E0,1E0,3E0,5.93E0,2.01E0,2.59E1,1.9E0,7.2E0,6.993E4,5.2E0,3.8E0,2.0938214E-2,8.016324E-3,1.997383E-2,1.289194E-2,6.7862966E-3,-5.4057674E-3,1.4316418E-2,8.288127E-3,1.0277197E-3,6.924737E-3,4.5037703E-3,-5.179901E-3,6.786701E-3,1.3398752E-2,5.8611674E-4,8.597881E-3,-5.6231767E-3,7.2819535E-3,4.303992E-3,-1.7250677E-3,-7.318688E-3,7.969403E-3,8.636452E-3,-3.7878638E-3,-9.359528E-3,-3.893279E-3,-4.329046E-3,9.611693E-3,-1.0900398E-2,-9.090423E-3,-1.0048577E-2,-3.335226E-4],"split_indices":[11,11,11,11,10,5,11,5,10,4,5,10,10,6,6,2,12,2,5,6,13,8,6,4,12,0,13,10,2,10,10,0,0,0,0,0,0,0,0,0,0,0,0,0,0,0,0,0,0,0,0,0,0,0,0,0,0,0,0,0,0,0,0],"split_type":[0,0,0,0,0,0,0,0,0,0,0,0,0,0,0,0,0,0,0,0,0,0,0,0,0,0,0,0,0,0,0,0,0,0,0,0,0,0,0,0,0,0,0,0,0,0,0,0,0,0,0,0,0,0,0,0,0,0,0,0,0,0,0],"sum_hessian":[1.4240018E3,5.9358075E2,8.304211E2,2.8614978E2,3.0743097E2,3.7907486E2,4.5134625E2,1.0367845E2,1.8247133E2,1.4127441E2,1.6615656E2,2.3166002E2,1.4741483E2,1.4516927E2,3.06177E2,5.255844E1,5.1120014E1,2.551911E1,1.5695222E2,8.89575E1,5.2316914E1,9.26762E1,7.3480354E1,5.8998295E1,1.7266173E2,1.1065873E2,3.6756096E1,1.0667891E2,3.849035E1,2.9405365E2,1.2123335E1,5.031514E1,2.243299E0,1.620458E1,3.4915436E1,2.1330204E1,4.188907E0,1.177367E2,3.921552E1,4.0436787E1,4.8520706E1,1.1986663E1,4.033025E1,5.7473736E1,3.5202465E1,5.258162E1,2.0898735E1,5.585278E1,3.1455178E0,3.4603817E1,1.380579E2,1.0911812E2,1.5406133E0,4.2286105E0,3.2527485E1,9.280124E1,1.3877671E1,3.667517E1,1.815176E0,1.7548451E2,1.1856914E2,4.2363863E0,7.886949E0],"tree_param":{"num_deleted":"0","num_feature":"17","num_nodes":"63","size_leaf_vector":"1"}},{"base_weights":[9.818714E-4,8.954688E-1,-6.433609E-1,1.3943999E0,4.266641E-1,-3.245412E-1,-9.1077787E-1,1.7941569E0,1.158526E0,1.5989994E-1,6.506812E-1,-1.6506179E-1,-5.8866495E-1,-7.2918135E-1,-9.943605E-1,2.022687E0,1.5249088E0,4.6014446E-1,1.2681279E0,4.2344597E-1,-2.8937352E-1,9.2837465E-1,2.917272E-1,-4.81237E-1,-4.6003845E-2,-6.413265E-1,2.2346081E-1,-8.649274E-1,-3.4162846E-1,-1.0165775E0,-4.209808E-1,2.0607917E-2,7.946776E-3,8.904537E-3,1.6731689E-2,6.702717E-3,-5.372622E-3,1.4097199E-2,8.178443E-3,1.0171726E-3,6.833582E-3,4.4531766E-3,-5.1427097E-3,6.6997814E-3,1.3190424E-2,5.80195E-4,8.481934E-3,-5.6036264E-3,5.7585854E-3,4.227526E-3,-1.7342778E-3,4.4584726E-3,-6.7119733E-3,1.3034511E-2,-2.025543E-3,-9.318017E-3,-3.8648655E-3,-4.297535E-3,9.515189E-3,-1.0864702E-2,-9.049913E-3,-1.0017199E-2,-3.3061474E-4],"categories":[],"categories_nodes":[],"categories_segments":[],"categories_sizes":[],"default_left":[0,0,0,0,0,0,0,0,0,0,0,0,0,0,0,0,0,0,0,0,0,0,0,0,0,0,0,0,0,0,0,0,0,0,0,0,0,0,0,0,0,0,0,0,0,0,0,0,0,0,0,0,0,0,0,0,0,0,0,0,0,0,0],"id":24,"left_children":[1,3,5,7,9,11,13,15,17,19,21,23,25,27,29,31,33,35,37,39,41,43,45,47,49,51,53,55,57,59,61,-1,-1,-1,-1,-1,-1,-1,-1,-1,-1,-1,-1,-1,-1,-1,-1,-1,-1,-1,-1,-1,-1,-1,-1,-1,-1,-1,-1,-1,-1,-1,-1],"loss_changes":[8.212079E2,1.3895206E2,7.031668E1,2.5131958E1,1.8363548E1,1.588208E1,6.1031494E0,3.3926086E0,1.3524445E1,1.6981266E1,1.6440178E1,8.934038E0,6.2347527E0,7.36145E0,3.4614868E0,8.83255E-1,3.4381714E0,5.9289637E0,8.967865E0,7.4686584E0,9.025257E0,8.611847E0,9.650344E0,5.757676E0,1.0463189E1,4.6513824E0,4.5957694E0,3.0677567E0,4.899775E0,1.3036194E0,2.917141E0,0E0,0E0,0E0,0E0,0E0,0E0,0E0,0E0,0E0,0E0,0E0,0E0,0E0,0E0,0E0,0E0,0E0,0E0,0E0,0E0,0E0,0E0,0E0,0E0,0E0,0E0,0E0,0E0,0E0,0E0,0E0,0E0],"parents":[2147483647,0,0,1,1,2,2,3,3,4,4,5,5,6,6,7,7,8,8,9,9,10,10,11,11,12,12,13,13,14,14,15,15,16,16,17,17,18,18,19,19,20,20,21,21,22,22,23,23,24,24,25,25,26,26,27,27,28,28,29,29,30,30],"right_children":[2,4,6,8,10,12,14,16,18,20,22,24,26,28,30,32,34,36,38,40,42,44,46,48,50,52,54,56,58,60,62,-1,-1,-1,-1,-1,-1,-1,-1,-1,-1,-1,-1,-1,-1,-1,-1,-1,-1,-1,-1,-1,-1,-1,-1,-1,-1,-1,-1,-1,-1,-1,-1],"split_conditions":[1.95E0,1.23E0,2.79E0,5.2E-1,5.8E0,8.44E1,3.16E0,7.85E1,4.6E0,4.05E0,8.15E1,4.6E0,8.3E0,3E0,5E0,7.3099E4,8.03E1,5.8051E4,8.52E1,2E0,1.4E0,1E0,3E0,5.87E0,2.03E0,1.97E0,1.98E0,7.2E0,6.993E4,5.2E0,3.8E0,2.0607917E-2,7.946776E-3,8.904537E-3,1.6731689E-2,6.702717E-3,-5.372622E-3,1.4097199E-2,8.178443E-3,1.0171726E-3,6.833582E-3,4.4531766E-3,-5.1427097E-3,6.6997814E-3,1.3190424E-2,5.80195E-4,8.481934E-3,-5.6036264E-3,5.7585854E-3,4.227526E-3,-1.7342778E-3,4.4584726E-3,-6.7119733E-3,1.3034511E-2,-2.025543E-3,-9.318017E-3,-3.8648655E-3,-4.297535E-3,9.515189E-3,-1.0864702E-2,-9.049913E-3,-1.0017199E-2,-3.3061474E-4],"split_indices":[11,11,11,11,10,5,11,5,10,4,5,10,10,6,6,2,5,2,5,6,13,8,6,4,12,11,13,10,2,10,10,0,0,0,0,0,0,0,0,0,0,0,0,0,0,0,0,0,0,0,0,0,0,0,0,0,0,0,0,0,0,0,0],"split_type":[0,0,0,0,0,0,0,0,0,0,0,0,0,0,0,0,0,0,0,0,0,0,0,0,0,0,0,0,0,0,0,0,0,0,0,0,0,0,0,0,0,0,0,0,0,0,0,0,0,0,0,0,0,0,0,0,0,0,0,0,0,0,0],"sum_hessian":[1.4228274E3,5.956068E2,8.272206E2,2.8757608E2,3.080307E2,3.783536E2,4.4886694E2,1.04263985E2,1.8331209E2,1.4138284E2,1.6664787E2,2.3692305E2,1.4143056E2,1.4454472E2,3.0432224E2,5.2873837E1,5.1390152E1,2.55712E1,1.5774089E2,8.914654E1,5.223631E1,9.306484E1,7.358302E1,6.3978104E1,1.7294496E2,1.330156E2,8.41496E0,1.0613694E2,3.8407776E1,2.9222626E2,1.209597E1,5.0624813E1,2.2490244E0,1.1061274E1,4.0328876E1,2.1392376E1,4.1788225E0,1.18384155E2,3.9356735E1,4.0457794E1,4.8688744E1,1.2012847E1,4.0223465E1,5.7649265E1,3.5415577E1,5.259722E1,2.0985802E1,5.9959892E1,4.0182095E0,3.646883E1,1.3647612E2,3.184579E0,1.2983102E2,1.7977781E0,6.6171813E0,9.228954E1,1.3847403E1,3.6582436E1,1.8253406E0,1.7430963E2,1.1791664E2,4.2104216E0,7.885549E0],"tree_param":{"num_deleted":"0","num_feature":"17","num_nodes":"63","size_leaf_vector":"1"}},{"base_weights":[1.014084E-3,8.8374853E-1,-6.3943696E-1,1.3740616E0,4.217008E-1,-3.2188228E-1,-9.0675473E-1,1.7670931E0,1.1419548E0,1.5822701E-1,6.4248425E-1,-1.6356134E-1,-5.8473706E-1,-7.2505766E-1,-9.9053526E-1,1.9917568E0,1.5023993E0,4.547091E-1,1.2494972E0,4.1842735E-1,-2.8693163E-1,9.155698E-1,2.8853533E-1,-4.777539E-1,-4.554407E-2,-6.37292E-1,2.22268E-1,-8.607566E-1,-3.3879092E-1,-1.0127928E0,-4.184416E-1,2.0203743E-2,6.3099866E-3,1.943982E-2,1.2494148E-2,6.6204993E-3,-5.3396807E-3,1.3883668E-2,8.070792E-3,1.0067385E-3,6.744041E-3,-5.1311E-3,4.403607E-3,6.6143423E-3,1.2987376E-2,5.7433505E-4,8.3682E-3,-5.5662356E-3,5.697343E-3,4.1774865E-3,-1.7186804E-3,4.416404E-3,-6.6710776E-3,1.2893465E-2,-2.0099008E-3,-9.276728E-3,-3.8366255E-3,-4.2662052E-3,9.4199935E-3,-1.0829284E-2,-9.009598E-3,-9.986056E-3,-3.2773262E-4],"categories":[],"categories_nodes":[],"categories_segments":[],"categories_sizes":[],"default_left":[0,0,0,0,0,0,0,0,0,0,0,0,0,0,0,0,0,0,0,0,0,0,0,0,0,0,0,0,0,0,0,0,0,0,0,0,0,0,0,0,0,0,0,0,0,0,0,0,0,0,0,0,0,0,0,0,0,0,0,0,0,0,0],"id":25,"left_children":[1,3,5,7,9,11,13,15,17,19,21,23,25,27,29,31,33,35,37,39,41,43,45,47,49,51,53,55,57,59,61,-1,-1,-1,-1,-1,-1,-1,-1,-1,-1,-1,-1,-1,-1,-1,-1,-1,-1,-1,-1,-1,-1,-1,-1,-1,-1,-1,-1,-1,-1,-1,-1],"loss_changes":[8.04842E2,1.3502933E2,6.974371E1,2.4434387E1,1.7909096E1,1.5661423E1,6.0924377E0,3.3013306E0,1.3114655E1,1.6624609E1,1.5987015E1,8.791958E0,6.1616898E0,7.3046875E0,3.4404602E0,8.3483887E-1,3.4538956E0,5.8109117E0,8.67952E0,7.2795553E0,8.970005E0,8.337822E0,9.415135E0,5.670436E0,1.0249027E1,4.589897E0,4.513669E0,3.0472565E0,4.8256874E0,1.309967E0,2.8914118E0,0E0,0E0,0E0,0E0,0E0,0E0,0E0,0E0,0E0,0E0,0E0,0E0,0E0,0E0,0E0,0E0,0E0,0E0,0E0,0E0,0E0,0E0,0E0,0E0,0E0,0E0,0E0,0E0,0E0,0E0,0E0,0E0],"parents":[2147483647,0,0,1,1,2,2,3,3,4,4,5,5,6,6,7,7,8,8,9,9,10,10,11,11,12,12,13,13,14,14,15,15,16,16,17,17,18,18,19,19,20,20,21,21,22,22,23,23,24,24,25,25,26,26,27,27,28,28,29,29,30,30],"right_children":[2,4,6,8,10,12,14,16,18,20,22,24,26,28,30,32,34,36,38,40,42,44,46,48,50,52,54,56,58,60,62,-1,-1,-1,-1,-1,-1,-1,-1,-1,-1,-1,-1,-1,-1,-1,-1,-1,-1,-1,-1,-1,-1,-1,-1,-1,-1,-1,-1,-1,-1,-1,-1],"split_conditions":[1.95E0,1.23E0,2.79E0,5.2E-1,5.8E0,8.44E1,3.16E0,7.85E1,4.6E0,4.05E0,8.15E1,4.6E0,8.3E0,3E0,5E0,7.7895E4,5E-2,5.8051E4,8.52E1,2E0,5.4E0,1E0,3E0,5.87E0,2.03E0,1.97E0,1.98E0,7.2E0,6.993E4,5.2E0,3.8E0,2.0203743E-2,6.3099866E-3,1.943982E-2,1.2494148E-2,6.6204993E-3,-5.3396807E-3,1.3883668E-2,8.070792E-3,1.0067385E-3,6.744041E-3,-5.1311E-3,4.403607E-3,6.6143423E-3,1.2987376E-2,5.7433505E-4,8.3682E-3,-5.5662356E-3,5.697343E-3,4.1774865E-3,-1.7186804E-3,4.416404E-3,-6.6710776E-3,1.2893465E-2,-2.0099008E-3,-9.276728E-3,-3.8366255E-3,-4.2662052E-3,9.4199935E-3,-1.0829284E-2,-9.009598E-3,-9.986056E-3,-3.2773262E-4],"split_indices":[11,11,11,11,10,5,11,5,10,4,5,10,10,6,6,2,12,2,5,6,10,8,6,4,12,11,13,10,2,10,10,0,0,0,0,0,0,0,0,0,0,0,0,0,0,0,0,0,0,0,0,0,0,0,0,0,0,0,0,0,0,0,0],"split_type":[0,0,0,0,0,0,0,0,0,0,0,0,0,0,